<?xml version="1.0"?>
<opencv_storage>
<opencv_ml_ann_mlp>
  <format>3</format>
  <layer_sizes>
    784 100 10</layer_sizes>
  <activation_function>SIGMOID_SYM</activation_function>
  <f_param1>1.</f_param1>
  <f_param2>1.</f_param2>
  <min_val>0.</min_val>
  <max_val>0.</max_val>
  <min_val1>0.</min_val1>
  <max_val1>0.</max_val1>
  <training_params>
    <train_method>BACKPROP</train_method>
    <dw_scale>1.0000000000000000e-03</dw_scale>
    <moment_scale>1.0000000000000001e-01</moment_scale>
    <term_criteria>
      <epsilon>1.0000000000000000e-03</epsilon>
      <iterations>10000</iterations></term_criteria></training_params>
  <input_scale>
    1. 0. 1. 0. 1. 0. 1. 0. 1. 0. 1. 0. 1. 0. 1. 0. 1. 0. 1. 0. 1. 0. 1.
    0. 1. 0. 1. 0. 1. 0. 1. 0. 1. 0. 1. 0. 1. 0. 1. 0. 1. 0. 1. 0. 1. 0.
    1. 0. 1. 0. 1. 0. 1. 0. 1. 0. 1. 0. 1. 0. 1. 0. 1. 0. 1. 0. 1. 0. 1.
    0. 1. 0. 1. 0. 1. 0. 1. 0. 1. 0. 1. 0. 1. 0. 1. 0. 1. 0. 1. 0. 1. 0.
    1. 0. 1. 0. 1. 0. 1. 0. 1. 0. 1. 0. 1. 0. 1. 0. 1. 0. 1. 0. 1. 0. 1.
    0. 1. 0. 1. 0. 1. 0. 1. 0. 1. 0. 1. 0. 1. 0. 1. 0. 1. 0. 1. 0. 1. 0.
    1. 0. 1.9698784360034958e+00 -1.0259783520851541e-01
    5.2641484840992812e-02 -1.4586078091358426e-01
    2.2489766697820171e-02 -1.8811752769114165e-01
    2.7780514345102987e-02 -2.0632819508394196e-01
    2.7305967591064847e-02 -1.8260865826524617e-01
    3.8222282034700683e-02 -1.4054651623176398e-01
    1.0943769088908312e-01 -1.0259783520851543e-01 1. 0. 1. 0. 1. 0. 1.
    0. 1. 0. 1. 0. 1. 0. 1. 0. 1. 0. 1. 0. 1. 0. 1. 0. 1. 0. 1. 0. 1. 0.
    1. 0. 1. 0. 1.2311740225021850e+00 -1.0259783520851541e-01
    1.2627425871817283e-01 -1.0259783520851543e-01
    6.3137129359086414e-02 -1.0259783520851543e-01
    4.5198221014198410e-02 -1.2994488541582042e-01
    3.2982659174538916e-02 -2.2022796386332755e-01
    2.2454320181820659e-02 -2.8021120393563698e-01
    1.7068535963365040e-02 -3.0136633810316399e-01
    1.8119039604242201e-02 -3.0877863325562754e-01
    2.0550867857391256e-02 -2.3633498035999945e-01
    3.1038257241126414e-02 -1.5648454692401234e-01
    1.6415653633362465e-01 -1.0259783520851540e-01 1. 0. 1. 0. 1. 0. 1.
    0. 1. 0. 1. 0. 1. 0. 1. 0. 1. 0. 1. 0. 1. 0. 1. 0. 1. 0. 1. 0. 1. 0.
    1. 0. 8.4908553276012752e-02 -1.0259783520851540e-01
    6.2557737468044647e-02 -1.1534082845670732e-01
    3.6419070591835724e-02 -1.6730010553124536e-01
    2.3341760122757738e-02 -3.0028201824589384e-01
    1.5232649646918209e-02 -3.5653920579817933e-01
    1.3669430402103668e-02 -4.3087183746630936e-01
    1.1681987463081774e-02 -5.1206045046508442e-01
    1.1037069606105329e-02 -5.2954940214292856e-01
    1.2588269253240013e-02 -4.5370220433552544e-01
    1.6673470850814706e-02 -3.5309548166360727e-01
    2.3461874126989003e-02 -2.3730708101360753e-01
    2.9406868429326511e-02 -1.6970213656090508e-01
    8.6398177017697184e-02 -1.0259783520851541e-01
    5.2113186137658619e-02 -1.0259783520851541e-01
    5.1838906210618312e-02 -1.0259783520851541e-01 1. 0. 1. 0. 1. 0. 1.
    0. 1. 0. 1. 0. 1. 0. 5.5966449619298686e-01 -1.4574596255025701e-01
    9.6702680384456952e-02 -1.2490762882992357e-01
    8.1537226739703650e-02 -1.5373164624881627e-01
    4.1876308059560816e-02 -1.4438602049702740e-01
    3.3256729081741911e-02 -1.4168752285867128e-01
    2.7849799506340416e-02 -1.5549471391040065e-01
    2.2688902149388578e-02 -2.6304945929447382e-01
    1.8410298211162437e-02 -3.3042649810242586e-01
    1.3570223573199961e-02 -4.2449355614916129e-01
    1.1649475251902460e-02 -5.5723323288266768e-01
    9.9851998055026907e-03 -6.9043496155132145e-01
    9.5344274487161752e-03 -8.1539218077041453e-01
    8.9204563862384598e-03 -8.6091696269270135e-01
    8.7712361861190576e-03 -8.6104301893735424e-01
    9.4104688205096446e-03 -7.5401381424333525e-01
    1.0637616588320197e-02 -6.5055673947945702e-01
    1.2467638870841439e-02 -5.1195242113392658e-01
    1.5238492234976597e-02 -3.6350153352183756e-01
    2.0126630507398657e-02 -2.9330370916511167e-01
    2.7054034063233309e-02 -2.0149619120012308e-01
    4.9660239817792821e-02 -1.5570554359537123e-01 1. 0. 1. 0. 1. 0. 1.
    0. 1. 0. 1. 0. 1. 0. 5.1843418802554803e-02 -1.4958986466987167e-01
    2.6781579063471398e-02 -1.8272848215181006e-01
    2.5981788148009503e-02 -2.0758366155753424e-01
    2.3760119936933128e-02 -2.2027611191531757e-01
    2.0546778470358861e-02 -2.4805954424110332e-01
    1.8227990959798369e-02 -3.3095196086383916e-01
    1.3993058844338527e-02 -4.1075458149318722e-01
    1.1845350158001642e-02 -4.9923215353411093e-01
    1.0337131234048048e-02 -5.4506831569532521e-01
    1.0024894792577494e-02 -6.6989270931650657e-01
    9.1786418064677706e-03 -8.4529554386439121e-01
    8.8759390764980035e-03 -1.0248935902393788e+00
    8.4183324973621763e-03 -9.8503259315488889e-01
    8.6453491560308307e-03 -9.7404267157947366e-01
    8.8126439493359781e-03 -9.3368126675725249e-01
    8.7339866185944526e-03 -8.7285278769578312e-01
    1.0014842223259124e-02 -7.4798352854966588e-01
    1.0805340900725486e-02 -5.5062216339946957e-01
    1.3514632396694039e-02 -5.0820648908401544e-01
    1.5729354217782317e-02 -3.3752572592324553e-01
    2.0039558462892775e-02 -2.5487813419991751e-01
    2.9529483144828141e-02 -1.7040972564827905e-01
    1.5389675281277312e-01 -1.0259783520851541e-01 1. 0. 1. 0. 1. 0. 1.
    0. 1. 0. 2.7492086434331413e-02 -1.8700346293352513e-01
    1.9643606664405348e-02 -2.4677280872159219e-01
    1.7317658112300065e-02 -2.6698056256462599e-01
    1.7052664338044535e-02 -3.0126373663878681e-01
    1.5800830509088676e-02 -3.5288521470298040e-01
    1.2395791789067247e-02 -4.4702324139323762e-01
    1.1146942514151268e-02 -5.5699878375399614e-01
    1.0124293400390753e-02 -6.1167605960694127e-01
    1.0342226276315612e-02 -7.1867699468022339e-01
    9.5818175949856626e-03 -8.9540089213142071e-01
    9.0976732485524292e-03 -1.1902789166856096e+00
    8.9783803471406628e-03 -1.2887716789958159e+00
    9.0459844770856782e-03 -1.2335519040575897e+00
    8.7564282481974610e-03 -1.1838508565974462e+00
    8.8561705994126844e-03 -1.1408777271139234e+00
    9.0614130181393693e-03 -1.1434370552264617e+00
    8.9478042325452124e-03 -1.0255488538614059e+00
    9.8137608586618442e-03 -7.4881039885102085e-01
    1.1156406703217756e-02 -5.5572850890403447e-01
    1.5292139160937921e-02 -3.9425046274293074e-01
    1.8119879071175994e-02 -2.6066201038847964e-01
    2.5525574730752679e-02 -2.0314103223224006e-01
    3.2740679745040004e-02 -1.5381298505221919e-01 1. 0. 1. 0. 1. 0. 1.
    0. 1. 0. 3.2320837909371153e-02 -2.2052238365248028e-01
    1.8509798040247084e-02 -2.7224827950863423e-01
    1.7123978752160807e-02 -3.0252362462150761e-01
    1.5877725633677432e-02 -3.2565876846573821e-01
    1.3297185087898431e-02 -3.9032778726768519e-01
    1.1867231972807387e-02 -4.5800098395053512e-01
    1.0518748814676463e-02 -6.1019700155138767e-01
    9.7210872504383157e-03 -6.9819683949762701e-01
    9.6349496133054709e-03 -8.7356876493969604e-01
    9.0145615449317498e-03 -1.0877570930884313e+00
    9.0382205680268612e-03 -1.3438704207084939e+00
    8.9256850831794625e-03 -1.3308568362565709e+00
    9.2682361584561727e-03 -1.2498602636184750e+00
    8.8287628751382921e-03 -1.1636493401992170e+00
    8.8965013086521588e-03 -1.2060319586541584e+00
    8.6335253016111922e-03 -1.1227180194303554e+00
    8.7230138002686204e-03 -1.1117299358988184e+00
    8.9886001336302607e-03 -9.3331631387527536e-01
    1.0573675365917756e-02 -6.8629761671909928e-01
    1.5212085605400104e-02 -3.8600667223702761e-01
    2.2504548139225526e-02 -2.8529203213997362e-01
    2.6166066625832839e-02 -1.7280506500810439e-01
    2.7946547840129978e-02 -1.7350148450747360e-01 1. 0. 1. 0. 1. 0.
    1.2627425871817283e-01 -1.0259783520851543e-01 1. 0.
    3.6135246475519196e-02 -1.3324872137847704e-01
    2.2830900462033645e-02 -2.0191077596111004e-01
    1.9266748128877131e-02 -2.8358244902191027e-01
    1.6884289171974477e-02 -3.3557524729299271e-01
    1.5341826404024341e-02 -3.6916269784683570e-01
    1.4475898730868008e-02 -4.0683307058210300e-01
    1.1728508320482100e-02 -5.8019464597884884e-01
    1.0633731833462315e-02 -7.3040445531094278e-01
    9.3194293119604928e-03 -8.9058796362422454e-01
    9.1632659973053202e-03 -1.1309951958549036e+00
    9.0570243916936102e-03 -1.2394915256049026e+00
    9.1564492143523923e-03 -1.1543802587636147e+00
    9.4653683898884462e-03 -1.0172313091508240e+00
    8.7234439035627116e-03 -1.0177351220823163e+00
    9.3020915088149157e-03 -1.1367930998064228e+00
    8.8100764040884415e-03 -1.1137404920835139e+00
    8.7555166904294286e-03 -1.1413180819170194e+00
    8.7544549311321107e-03 -9.5031432122216375e-01
    1.0187841595443422e-02 -6.6337706055330026e-01
    1.6426729799983386e-02 -3.7045697934337529e-01
    2.9030941756577812e-02 -2.2680423247326414e-01
    3.8923900942642996e-02 -1.0582435568781065e-01
    5.2390383936263191e-02 -1.0259783520851541e-01 1. 0. 1. 0. 1. 0.
    1.0943769088908311e+00 -1.0259783520851541e-01 1. 0.
    4.4500811975809365e-02 -1.2330433318297179e-01
    2.8737363335410208e-02 -1.7362157015143667e-01
    2.5372675987570169e-02 -2.4368340896395516e-01
    1.8876977719100598e-02 -2.5896853808391135e-01
    1.6439532331753874e-02 -3.1577601687243900e-01
    1.4217849803800826e-02 -3.6373999081390446e-01
    1.2138972776735944e-02 -5.9822375215351831e-01
    9.6016220910291657e-03 -7.4842643861636715e-01
    8.8764851256057618e-03 -9.8075914299271161e-01
    9.0245756944755846e-03 -1.0740185136394120e+00
    9.3605369134475529e-03 -1.0419447651781308e+00
    9.3625372899696704e-03 -8.7139865297790631e-01
    9.3664401575802875e-03 -8.6649328166115147e-01
    9.4130941143034490e-03 -9.3689702356426519e-01
    9.2134654256215507e-03 -1.0198154542984854e+00
    9.1096873744822525e-03 -1.1227689689049376e+00
    8.6896363628360430e-03 -1.0665623464926781e+00
    8.7068882189864777e-03 -8.6778652582565230e-01
    1.0995916357609842e-02 -6.1806213193398662e-01
    2.1065254089792047e-02 -3.6074247628768880e-01
    3.6576113267985669e-02 -1.9735861117517267e-01
    1.8941138807725921e-01 -1.0259783520851540e-01 1. 0. 1. 0. 1. 0. 1.
    0. 1. 0. 1. 0. 8.2078268166812324e-02 -1.0259783520851540e-01
    3.8059200082411870e-02 -1.2686400027470623e-01
    2.3129058168566360e-02 -2.3201336475343129e-01
    1.8512325325052651e-02 -2.6997141099035116e-01
    1.4128705632119532e-02 -3.7588243942118005e-01
    1.3003289164546079e-02 -4.6811840992365883e-01
    1.0057755701482766e-02 -6.7020274189984641e-01
    9.3573335798666172e-03 -8.7052443960196624e-01
    8.7719992926699342e-03 -1.0582137896709429e+00
    8.9369988181047643e-03 -1.0499111736519326e+00
    9.3566046647214612e-03 -9.8760911528773498e-01
    9.2746231749608020e-03 -8.2669740112645407e-01
    9.3236674137403951e-03 -8.5476663446176260e-01
    9.4964348446167305e-03 -9.3114522075393003e-01
    9.3234521285153991e-03 -1.0365542142463005e+00
    9.0721376057854679e-03 -1.0479263949016151e+00
    8.8951251361702594e-03 -9.9087987714796610e-01
    8.9807782880636511e-03 -8.0396675632936476e-01
    1.1322419498170515e-02 -5.2967693714878938e-01
    2.1118817417348824e-02 -3.5747998232491496e-01
    3.7084272059852756e-02 -1.2824977420699080e-01
    1.7279635403539437e-01 -1.0259783520851541e-01 1. 0. 1. 0. 1. 0. 1.
    0. 1. 0. 1. 0. 6.1945862767405525e-02 -1.0259783520851540e-01
    3.5309737107875751e-02 -1.3682523129301855e-01
    2.1143659871403740e-02 -2.2575261841863370e-01
    1.8279202909481828e-02 -3.1341216655215715e-01
    1.2651607932364670e-02 -4.2264277749055729e-01
    1.0721380551701423e-02 -5.3283027721007803e-01
    9.2880627152034777e-03 -6.9466969057459349e-01
    9.4161581731487063e-03 -1.0172393376429711e+00
    8.8890512161520097e-03 -1.0616860546291556e+00
    9.0622674845885140e-03 -9.3426313848929710e-01
    9.6430968497323404e-03 -9.6581641885600467e-01
    9.3505761393865034e-03 -9.1547984514680980e-01
    9.2301401843570639e-03 -1.0581009659255156e+00
    9.0676220279177228e-03 -1.0699793992942912e+00
    9.3041065089615807e-03 -1.0614434842307003e+00
    8.7152773802674516e-03 -9.5704639732061958e-01
    9.0163384659843106e-03 -8.7862339947170032e-01
    9.7660048453379941e-03 -7.3397630165743366e-01
    1.2131264171530766e-02 -4.7236109867897919e-01
    1.9213537247511278e-02 -3.1141941622007863e-01
    3.6919680031864605e-02 -1.4537124012546687e-01
    5.7937601058926348e-02 -1.0259783520851540e-01 1. 0. 1. 0. 1. 0. 1.
    0. 1. 0. 1. 0. 6.1945862767405525e-02 -1.0259783520851540e-01
    2.8952218783207549e-02 -1.4566585075301297e-01
    2.2337313075579329e-02 -2.1290251525161547e-01
    1.7667264368527020e-02 -3.2721245882542749e-01
    1.2866688919108138e-02 -4.3639519917308434e-01
    1.0725265408146063e-02 -5.3805081464199411e-01
    1.0389279651657724e-02 -7.8633860363484398e-01
    9.5516315551361329e-03 -9.5128280519433928e-01
    9.1283847872053563e-03 -9.4507308750035457e-01
    9.7004076611458077e-03 -8.4898776217653205e-01
    9.4517149508747521e-03 -9.5974288897007387e-01
    8.9536339738443098e-03 -1.0583941493248461e+00
    8.8778824259513351e-03 -1.1978667819098714e+00
    9.1245944904827202e-03 -1.1874329059333397e+00
    9.2253613218767905e-03 -1.0561116763273535e+00
    8.9793940641639987e-03 -1.0092464786700994e+00
    1.0038759395169034e-02 -7.9504883001531423e-01
    9.7125357546529872e-03 -6.5711374715074122e-01
    1.2126842496891428e-02 -5.0061121682479925e-01
    1.7458096590564191e-02 -3.1115420069224303e-01
    4.4566809125682463e-02 -1.9730097790015672e-01
    4.9744404949583231e-02 -1.0259783520851541e-01 1. 0. 1. 0. 1. 0. 1.
    0. 1. 0. 1. 0. 6.1945862767405525e-02 -1.0259783520851540e-01
    2.7565037763381650e-02 -1.4586499149789459e-01
    2.6161402524549942e-02 -2.0220584034600059e-01
    1.8851686999980206e-02 -3.3834850730172811e-01
    1.2727758391392131e-02 -4.3009216897579239e-01
    1.0749762867611472e-02 -5.6593022430112894e-01
    9.6997895380738341e-03 -7.2253328111214565e-01
    8.9417866017124006e-03 -7.9050982175763695e-01
    9.9032708152945580e-03 -9.1120407407809201e-01
    9.4899518782347678e-03 -8.8879330559592495e-01
    8.9901224897739503e-03 -1.0452890336547587e+00
    8.7472354804547965e-03 -1.1426987516706624e+00
    9.2872735502736985e-03 -1.2980899635163801e+00
    9.0151162503500342e-03 -1.1687722588735057e+00
    9.2487280103147763e-03 -1.0305587867326786e+00
    9.7281066394495786e-03 -9.4291700291748259e-01
    9.4490086109156879e-03 -7.2216016852383746e-01
    9.8467412240528483e-03 -6.7645060804821400e-01
    1.1916674345007983e-02 -5.0981022432237277e-01
    1.8594513597486307e-02 -3.2307967375632457e-01
    3.0238059296319949e-02 -2.2521054580071628e-01
    3.3593558884614919e-02 -1.6166900213220931e-01
    2.5254851743634565e-01 -1.0259783520851543e-01 1. 0. 1. 0. 1. 0. 1.
    0. 1. 0. 6.5662614533449862e-02 -1.0259783520851541e-01
    2.7619351807245847e-02 -1.4586470173201713e-01
    2.2958982393598389e-02 -2.3939522266658322e-01
    1.5266531741340999e-02 -3.6719189365371213e-01
    1.1917477952523283e-02 -4.7905778561236823e-01
    9.7625255620841372e-03 -6.4076743298637662e-01
    9.3146468038914527e-03 -7.9426769517349405e-01
    8.6128439802892563e-03 -8.2144999462008783e-01
    9.9032417281781516e-03 -8.1815218902271791e-01
    9.3017355864096814e-03 -8.6864645346002911e-01
    8.9797521597163119e-03 -1.0843050732857447e+00
    9.0142646391583800e-03 -1.1772066227200897e+00
    9.6473925378678990e-03 -1.3065182331752141e+00
    8.7974276200000583e-03 -1.0638472629227154e+00
    9.0525157568031901e-03 -9.2788286507232698e-01
    9.2966667214111551e-03 -8.0890684504111854e-01
    9.3992159055862577e-03 -7.8532407061153509e-01
    9.7261365152006857e-03 -6.9795160888768260e-01
    1.2199393878006476e-02 -5.0017514899826554e-01
    1.6077791225793437e-02 -3.1586160679006686e-01
    2.1715038627673926e-02 -2.4587757279459954e-01
    2.7010078129644507e-02 -1.7078247317389808e-01
    6.1558701125109243e-02 -1.0259783520851541e-01 1. 0. 1. 0. 1. 0. 1.
    0. 1. 0. 1. 0. 4.7139451831285192e-02 -1.4338249932015912e-01
    2.3488808780588139e-02 -2.6424909878161656e-01
    1.4500721771878737e-02 -3.6674742148043310e-01
    1.1477468572568698e-02 -5.1588830094410343e-01
    9.8548967435449185e-03 -6.8891887547843700e-01
    9.1366120720575896e-03 -7.6062295499879429e-01
    9.0840253406423085e-03 -7.9570384468188726e-01
    1.0235337547367680e-02 -7.9387836851770566e-01
    9.7252572962687779e-03 -8.3647343224261772e-01
    8.7397678623216801e-03 -9.4271141889938537e-01
    8.9502585040399114e-03 -1.0633093566518248e+00
    9.3829367101491406e-03 -1.1077729653419830e+00
    9.1498673818651375e-03 -9.7188747596748759e-01
    9.2284859834083684e-03 -8.1547131872138734e-01
    9.1069601477063913e-03 -7.6745112078067401e-01
    9.4366200403092678e-03 -8.1852849037140907e-01
    9.7995062413709800e-03 -6.5952718568226976e-01
    1.2457473478674406e-02 -4.9648222426466954e-01
    1.8722839713967213e-02 -2.8883880850401505e-01
    3.8805424183925546e-02 -2.3161987559780561e-01
    3.8357064118830726e-02 -1.1507119235649219e-01 1. 0. 1. 0. 1. 0. 1.
    0. 1. 0. 1. 0. 1. 0. 1.5633955841297587e-01 -1.0259783520851541e-01
    2.7209556347879950e-02 -2.2192794396239585e-01
    1.5362568541222112e-02 -3.4837824702333892e-01
    1.1123045609866943e-02 -5.6322004905795009e-01
    9.6193656248221970e-03 -6.6323521948643882e-01
    9.4657986467154634e-03 -6.8745362671771049e-01
    9.4923735457625290e-03 -7.1153250036778282e-01
    9.9956881744946210e-03 -7.0188472900279419e-01
    9.6310946810569207e-03 -7.3116060453690457e-01
    9.0382499298106312e-03 -8.8565434468467297e-01
    9.0552132410481063e-03 -1.0223901699970876e+00
    8.9929443296876913e-03 -9.3217488567418971e-01
    9.3697662553092788e-03 -8.2639386337191323e-01
    1.0067501643892232e-02 -7.9648619776418228e-01
    9.5746082968564787e-03 -7.5898717853206044e-01
    9.4026560696703135e-03 -8.1440713770113182e-01
    1.0018492630923730e-02 -6.2250321399437547e-01
    1.3099519617876110e-02 -4.5425313341572471e-01
    2.0446431462940055e-02 -2.9136164834689576e-01
    3.8425661540327664e-02 -1.8452322885511513e-01
    3.8005334317455675e-02 -1.2035022533860963e-01 1. 0. 1. 0. 1. 0. 1.
    0. 1. 0. 1. 0. 1. 0. 1.1469615909759349e-01 -1.4217544721472525e-01
    2.5311239703863699e-02 -1.9958967141484188e-01
    1.5475094842373503e-02 -4.0847802427681723e-01
    1.0388210992632175e-02 -5.7589644690404618e-01
    9.9813183234747378e-03 -6.5980673000802803e-01
    9.9070855023725927e-03 -6.7698417599546046e-01
    1.0257275977738584e-02 -7.1266698720329547e-01
    1.0660421291791256e-02 -6.2863171805031559e-01
    1.0566221867118513e-02 -6.8141124561802824e-01
    9.6634525756279666e-03 -8.5491357005008672e-01
    8.9741810006616265e-03 -9.0358784950411752e-01
    1.0062838240903720e-02 -9.6058176707960086e-01
    1.0320368130484746e-02 -8.2347937374492874e-01
    9.6752353918477824e-03 -8.2793811191697431e-01
    8.9675769470468208e-03 -8.0166401416203970e-01
    9.5098167464397875e-03 -7.4394503922669597e-01
    1.1863005535954695e-02 -5.4446252491058733e-01
    1.3119225186572029e-02 -4.0095631976460760e-01
    1.7906340872977419e-02 -3.0478084360880314e-01
    2.2654942483448671e-02 -2.0743431711407689e-01
    3.2676752481578433e-02 -1.6304337956954237e-01 1. 0. 1. 0. 1. 0. 1.
    0. 1. 0. 1. 0. 1. 0. 1.3492318054818467e-01 -1.0259783520851543e-01
    2.2966812134325592e-02 -2.3158202235444975e-01
    1.4041615795744264e-02 -4.1569033428651253e-01
    1.0760932485201581e-02 -5.6640616508045405e-01
    1.0222566143322667e-02 -6.5477665849261535e-01
    9.6235510860213543e-03 -6.8447507099326887e-01
    9.5228678405565089e-03 -7.6103585492447434e-01
    9.7535322290730093e-03 -7.2359017224435385e-01
    9.9683424278507893e-03 -7.9881727393183466e-01
    9.1596335557148668e-03 -8.7999271129539813e-01
    9.0541863561793643e-03 -9.7681466761405922e-01
    9.3902168857769377e-03 -9.5379171722094713e-01
    9.4897537997908638e-03 -9.1012670036119259e-01
    8.5932673551091954e-03 -8.8886609204410738e-01
    8.9161131306595282e-03 -8.3309932064599967e-01
    1.0690126816741200e-02 -6.6334464007632632e-01
    1.2825116792950238e-02 -4.5676119078225902e-01
    1.4210710478355332e-02 -3.6503762541275259e-01
    1.8353086985657813e-02 -2.8753169610863905e-01
    2.7369624877437104e-02 -1.9757447958399910e-01
    8.2433382115023962e-02 -1.2966084061842312e-01 1. 0. 1. 0. 1. 0. 1.
    0. 1. 0. 1. 0. 1. 0. 1.0061107897471754e-01 -1.4567645809880977e-01
    2.0827278376084429e-02 -2.6424609439657121e-01
    1.3543266645456610e-02 -4.3408991112572909e-01
    1.0489314691207108e-02 -5.9996694759810654e-01
    9.5684700649112907e-03 -7.1025955919331107e-01
    9.5487220655942739e-03 -8.3959128078834644e-01
    8.7854606443056940e-03 -8.8312182518281190e-01
    8.9500297888789413e-03 -9.4208386475647610e-01
    9.4081942213228437e-03 -1.0353913744612067e+00
    9.1845369660726230e-03 -1.0397661223674715e+00
    8.9994027547680728e-03 -1.0473054955861345e+00
    8.9499507539746725e-03 -1.0412708330327407e+00
    9.0188353721807474e-03 -9.6633063164844957e-01
    8.9947400410601216e-03 -8.7145913668646036e-01
    9.8685053118585057e-03 -7.1505544738841420e-01
    1.2263350281563869e-02 -4.5783174384505115e-01
    1.4074600443903865e-02 -3.9071677273962291e-01
    1.5982411267619720e-02 -3.3896030563410157e-01
    2.2085567007690328e-02 -2.7814010950310009e-01
    3.5241951162968639e-02 -1.7657685947279081e-01
    8.4908553276012752e-02 -1.0259783520851540e-01 1. 0. 1. 0. 1. 0. 1.
    0. 1. 0. 1. 0. 1. 0. 9.1425461771871774e-02 -1.4570932969892064e-01
    2.0690339428752629e-02 -2.6466392519279403e-01
    1.3956393652018017e-02 -4.0081018019389242e-01
    1.0425115038024988e-02 -5.8706429057878218e-01
    9.3516990111949579e-03 -7.3060148524960611e-01
    9.0283068601225668e-03 -9.2060516514312296e-01
    8.9368724191227662e-03 -1.0889951412385221e+00
    9.3996128732478784e-03 -1.2092210310897011e+00
    8.9631718007013878e-03 -1.2203918604892483e+00
    9.1483526592893508e-03 -1.1809951511101346e+00
    9.0963982652671489e-03 -1.1404609325078687e+00
    8.8685837340717142e-03 -1.0597957562215699e+00
    9.0974886417650083e-03 -8.7534898524982685e-01
    9.2895231747234294e-03 -7.2787284708614208e-01
    1.1414785028305405e-02 -5.7371185168305805e-01
    1.3335416125786202e-02 -4.3228973941090271e-01
    1.5137106183241975e-02 -3.6139841012490215e-01
    1.6122619310964065e-02 -3.0733743061525248e-01
    2.6573282953032431e-02 -2.1590792399338851e-01
    4.1299835674505313e-02 -1.1744640769937448e-01
    4.1558616793322699e-02 -1.0259783520851541e-01 1. 0. 1. 0. 1. 0. 1.
    0. 1. 0. 1. 0. 1. 0. 9.7813651038625743e-02 -1.4468269216130059e-01
    2.3416200618582635e-02 -2.2513701219741430e-01
    1.6064030548164181e-02 -3.0638791597592308e-01
    1.2359927694673105e-02 -5.1679947673351923e-01
    9.9708906731420886e-03 -6.8227896699864976e-01
    8.9659249648880238e-03 -8.7894083171417903e-01
    8.6483109282073211e-03 -1.0589676558445527e+00
    8.5534522429541165e-03 -1.1685263142327422e+00
    8.8554971746563228e-03 -1.1431893383907896e+00
    8.9602767199192107e-03 -1.0761665685486304e+00
    8.5436337224909474e-03 -1.0014740654082357e+00
    9.0439745706655077e-03 -9.1749237858032695e-01
    9.5249166962358255e-03 -7.2528271926545707e-01
    1.0488640970848281e-02 -5.9348226826716521e-01
    1.2726111316736026e-02 -4.5641667982835565e-01
    1.5190040940202171e-02 -3.5585835494286128e-01
    1.8237072852803748e-02 -2.8761383644942579e-01
    2.0683051073032754e-02 -2.3720874199384440e-01
    4.3727817886611342e-02 -1.8584322601809822e-01
    1.4923321484874968e-01 -1.0259783520851541e-01 1. 0. 1. 0. 1. 0. 1.
    0. 1. 0. 1. 0. 1. 0. 1. 0. 1.3441634602157476e-01
    -1.4561770819003930e-01 3.9191835884530853e-02
    -2.0575713839378698e-01 1.9853013146759003e-02
    -2.8331904178187328e-01 1.3575825860906691e-02
    -3.7743624190374953e-01 1.1243158613265448e-02
    -5.2245552681017882e-01 9.5671431522784643e-03
    -7.7453996436987727e-01 8.7968431057819062e-03
    -9.7571651448297647e-01 8.5644114484843947e-03
    -9.5876801913397702e-01 9.7635447490909549e-03
    -9.0658581138954974e-01 9.2592525406343246e-03
    -8.3391143194087891e-01 9.3397552536393681e-03
    -8.2384424466477257e-01 1.0666724148612795e-02
    -6.8233701038157468e-01 1.1522745469082617e-02
    -5.1972383209508055e-01 1.3079942764431399e-02
    -4.4430930577927907e-01 1.7134165779654875e-02
    -3.4428964363494013e-01 2.1420628642492629e-02
    -2.8806282893185398e-01 2.4706327851614293e-02
    -2.0254041686687965e-01 2.7159719429561382e-02
    -1.7370903885156966e-01 4.8955238788706071e-02
    -1.1065923767863767e-01 4.1912307149010557e-02
    -1.0259783520851543e-01 1. 0. 1. 0. 1. 0. 1. 0. 1. 0. 1. 0. 1. 0. 1.
    0. 7.2422001323657947e-02 -1.0259783520851543e-01
    3.8930403873586879e-02 -1.0259783520851541e-01
    3.4657346858427633e-02 -1.7978498682809335e-01
    1.7306169105882546e-02 -3.1601785877720939e-01
    1.3012896070357426e-02 -4.2617234630420570e-01
    1.0437709684349790e-02 -6.0158174670320197e-01
    9.9069340456673406e-03 -7.0535306460558622e-01
    1.0467088757230056e-02 -6.4568853771162904e-01
    1.2193294620386501e-02 -5.2951922158740961e-01
    1.1639547985330408e-02 -5.2232471584170204e-01
    1.2373159339462847e-02 -5.4957449399447478e-01
    1.4600185148251014e-02 -4.3618053130399903e-01
    1.4635855798895807e-02 -3.5827355341047029e-01
    1.7598410739732995e-02 -3.1970446177181611e-01
    1.9821076259049848e-02 -2.5251225275852046e-01
    3.0401408736804192e-02 -1.9032548594603457e-01
    4.8199768219921856e-02 -1.2049942054980464e-01
    1.0246783156375468e-01 -1.4409538813653003e-01
    4.4745156162669991e-01 -1.0720193663973020e-01
    9.9488809899166461e-02 -1.0259783520851541e-01 1. 0. 1. 0. 1. 0. 1.
    0. 1. 0. 1. 0. 1. 0. 1. 0. 1. 0. 1. 0. 2.3888654682363450e-01
    -1.6672290247066157e-01 2.7991313568162039e-02
    -1.9564761879413256e-01 1.7565379033409868e-02
    -2.8745010897382189e-01 1.5095845191952185e-02
    -3.6953371042799621e-01 1.5173265853589087e-02
    -3.4171459141103755e-01 2.2291130906733500e-02
    -2.5681240398799221e-01 2.1515342590208840e-02
    -2.5571881141071129e-01 1.7967240808051503e-02
    -2.7942802631688435e-01 1.9846617745163563e-02
    -2.4766925061152029e-01 2.5008468690557614e-02
    -2.0449633252174718e-01 2.8637421207030667e-02
    -1.7719404371850225e-01 5.5608181311092235e-02
    -1.3380718627981569e-01 7.6143680144642220e-02
    -1.1104286687760323e-01 5.7937601058926358e-01
    -1.0259783520851543e-01 3.2831307266724932e+00
    -1.0259783520851541e-01 1. 0. 1. 0. 1. 0. 1. 0. 1. 0. 1. 0. 1. 0. 1.
    0. 1. 0. 1. 0. 1. 0. 1. 0. 1.3725494776814295e+00
    -1.4297390392514892e-01 4.1678355074629837e-02
    -1.6714756983054677e-01 2.2978899928772389e-02
    -2.1758145870056356e-01 2.0860544686392118e-02
    -2.6944870219923150e-01 2.3677529617537392e-02
    -2.3282904123911771e-01 3.1337795372636319e-02
    -1.9912557476362663e-01 3.8917912936563423e-02
    -1.1796992358895787e-01 2.8290088258186095e-02
    -1.9361029151696110e-01 2.1955723059020309e-02
    -2.0789325271509856e-01 2.5317999022935189e-02
    -1.9120363845445845e-01 3.6389302128341530e-02
    -1.6147752819451555e-01 6.6484561251878127e-02
    -1.1565543467774632e-01 3.9084889603243966e-02
    -1.0259783520851541e-01 2.3450933761946380e-01
    -1.0259783520851541e-01 1. 0. 1. 0. 1. 0. 1. 0. 1. 0. 1. 0. 1. 0. 1.
    0. 1. 0. 1. 0. 1. 0. 1. 0. 1. 0. 1. 0. 5.5646283502923610e-02
    -1.0259783520851541e-01 3.9159698958483119e-02
    -1.4440138990940651e-01 4.2714977732014055e-02
    -1.1079197349241146e-01 2.2905563209342975e-01
    -1.0259783520851541e-01 1. 0. 1. 0. 1. 0. 1. 0. 1. 0. 1. 0. 1. 0. 1.
    0. 1. 0. 1. 0. 1. 0. 1. 0. 1. 0. 1. 0. 1. 0. 1. 0. 1. 0. 1. 0. 1. 0.</input_scale>
  <output_scale>
    .Inf .Nan .Inf .Nan .Inf .Nan .Inf .Nan .Inf .Nan .Inf .Nan .Inf
    .Nan .Inf .Nan .Inf .Nan .Inf .Nan</output_scale>
  <inv_output_scale>
    0. 0. 0. 0. 0. 0. 0. 0. 0. 0. 0. 0. 0. 0. 0. 0. 0. 0. 0. 0.</inv_output_scale>
  <weights>
    <_>
      -2.4205505044311306e-03 1.4350020023881954e-03
      6.4644512343053386e-04 4.8633238430626955e-04
      3.7031664159510754e-04 -1.6347347408353825e-03
      -1.2924630049669246e-03 1.7709373011530339e-03
      7.3201703133273985e-04 8.4176117600069666e-04
      -2.2103004689572893e-03 2.5701767177842448e-03
      -4.6055566270852285e-04 -1.2959532608692174e-03
      1.2146696274049592e-03 1.3501453984548978e-03
      1.2006486140541946e-03 -7.9047858364686484e-04
      5.2702745043081700e-04 1.4969797402949717e-03
      1.8790840525207588e-03 -8.0425485038962896e-05
      -2.1396785201270195e-03 3.8027502702400544e-04
      5.4070604485474824e-04 1.9483366631563347e-03
      -1.1016644708152256e-03 1.9584281285844650e-03
      1.8217483075673349e-03 3.5326222553837576e-04
      -2.4665188888353640e-04 -1.5093692338370161e-03
      2.4117844440002967e-03 -1.0806241320293882e-03
      -5.1099068755931939e-04 1.1185571773340256e-03
      2.2493344026269821e-03 -5.7268389394363574e-04
      1.0421095318872201e-03 -4.2355703764858566e-04
      -6.8650041093578490e-04 -5.9625754962180889e-04
      -2.3240753129875041e-03 2.4844909353482392e-03
      -4.5812788503573639e-04 -1.3234199368159457e-03
      -1.3117890958410138e-03 -1.2971892833947409e-03
      1.9286432407072259e-03 2.4776955337968321e-03
      4.4171985651576075e-04 -6.4402036669152440e-04
      -1.9063480179137810e-04 -6.2389818836504937e-05
      -1.3084339282737141e-03 1.2973360679489304e-03
      2.4794315242453327e-03 -1.6896887634146917e-04
      2.3502187914656940e-03 -1.0219549636833831e-03
      1.7979035016160393e-03 -2.3143435270049804e-03
      -6.7635147751573383e-04 1.7444478761288152e-03
      4.0994780195165853e-04 -1.1371349919335483e-03
      -2.1511456119164040e-03 2.5932848588354198e-03
      -1.2192245718567042e-03 6.2259539968795340e-04
      -2.4739335763265301e-03 -5.5506389869876402e-04
      9.3319818898351112e-04 2.1824289240875705e-03
      -2.4770198212941850e-03 1.8768121412062618e-03
      -1.7568050742993696e-03 1.5740954205610838e-03
      7.9169482570736166e-05 -1.6393361948915856e-03
      8.5506088794419836e-04 -1.9247983747517560e-05
      6.6870247944575878e-04 -4.2905209528778420e-04
      -3.3062849336926858e-04 -2.3421222666677173e-03
      1.2299060377926766e-03 -2.4927376995615520e-03
      -1.7246591510148518e-03 -1.2900388111961947e-03
      2.5464509944050323e-03 -1.7040511063194179e-03
      1.5449500455183046e-03 9.8159894791508451e-04
      -1.6395223755152628e-03 -6.2404130075466161e-04
      -2.2485511052531527e-03 1.8022481891010835e-03
      -4.4152206997778156e-04 -1.8918223063722698e-03
      5.1696284291902759e-04 -1.1462587045603955e-03
      1.3271121066285687e-03 2.0349253709197814e-03
      -2.0789439996259971e-04 -2.6278472881858567e-03
      -6.2137547830144280e-04 -5.6314481290179158e-04
      -5.8884356465172384e-04 1.1347947913265721e-03
      1.8158400495619021e-03 1.2053427000363397e-03
      -3.3871773124435558e-04 1.5782343508407672e-03
      2.3643370250245712e-03 1.4576160908754509e-03
      1.2876331728093708e-03 -2.2223573664666742e-03
      -1.2420822153991372e-03 1.1362399353808165e-03
      1.7100964781361510e-03 -5.0338429278175907e-04
      -3.0546605958209138e-04 4.3034523465551626e-04
      -6.4746045629228421e-04 -1.6978176696383109e-03
      -8.7716089684717268e-04 1.3099967938766299e-03
      2.5309688048468135e-03 2.2139388332729913e-03
      1.2271952495767201e-03 -1.3760202161781077e-03
      2.2781054343213652e-03 1.1187243823972766e-03
      -5.9168778960385607e-04 9.0443563466739970e-05
      1.1737100848109752e-03 1.6946094836335348e-03
      1.4360221092004171e-03 1.5096901934200362e-03
      1.2055304274241829e-03 -2.3970962661184411e-03
      1.1189925039224962e-05 2.4339091520092721e-03
      6.8246957020225065e-04 -1.9466637872566574e-03
      1.9128338834277757e-03 1.1872493140987470e-03
      -1.6671804626521374e-03 -9.2280886061430151e-04
      -9.0378716211687784e-04 1.5028303414525847e-05
      1.5830882291244469e-03 -2.0735257460117373e-03
      -1.3935019467597616e-03 4.7332415432493305e-04
      2.0341573810042654e-03 1.5534700032835617e-04
      1.6897684656261975e-04 2.0980553297524130e-03
      -1.2725018011645519e-03 1.5074175020667185e-03
      -1.1927308437742850e-03 6.3270803180099126e-04
      1.2009875370347731e-03 -1.4028178347273699e-03
      -1.8407066614731700e-03 9.7811846455308940e-04
      -2.5555596028841446e-04 1.1701808567341364e-03
      7.0336764253263877e-06 -1.0000431699142614e-03
      -2.2141343502134940e-03 -1.6687057698110078e-03
      1.1007261996600771e-03 -1.6939208097205450e-03
      3.5574447253273496e-04 -2.6434521257609127e-03
      7.4932379401512360e-04 -1.0962931057807044e-03
      2.0796859914649882e-03 -1.3826350646334250e-03
      1.2133118845778682e-04 1.2703957711136737e-03
      -1.9114526515396119e-03 -1.3823455460982696e-03
      2.3022513274066556e-03 2.5358567994682784e-03
      -1.5442369473697430e-03 1.7981362358265537e-04
      4.9164853528702494e-05 -1.8031647956547069e-03
      -2.4879459553097151e-03 2.1383652794560544e-03
      -1.7063002883048932e-03 -1.2903812449038034e-03
      2.0691899488953155e-03 2.3874476647723678e-03
      -1.2440421304832857e-03 1.5220685602870521e-03
      -1.2804791524286005e-03 6.7518982672510366e-05
      2.2473935682637883e-03 2.5395760880831206e-03
      2.0356583424529263e-03 -1.6138746992204096e-03
      -1.3125068490776859e-03 -2.4967956905256933e-04
      9.9626523151477467e-04 -2.2087560357629669e-03
      -1.1333992639877570e-03 -2.4273224828371152e-04
      7.7630524580477305e-04 -1.1719426692489087e-03
      -2.1526167959436096e-03 6.9756280721370938e-04
      -1.7932330600998283e-03 2.2032823546913132e-03
      1.6967791950376206e-03 -4.6670675607554966e-04
      1.9657832172314212e-03 4.7572160320977859e-04
      2.4196172310331802e-05 -1.8023716354937927e-03
      -5.5313062079023116e-04 -7.7810070075995657e-04
      7.8924255296625189e-04 -1.8539894772010110e-03
      5.8732082178827090e-04 -1.4364542198512952e-05
      -3.7005197919411916e-04 -1.3051920236366695e-04
      5.1243703799553448e-04 -4.5621173344591185e-04
      -2.0872351248095214e-03 1.5649932360349626e-03
      3.6981424496011366e-04 7.2743027414240500e-04
      2.5460278507528199e-03 2.5365933194760764e-03
      2.5158350421405724e-03 -2.3615546120955722e-03
      -1.2583764613015537e-03 -1.6633140146560046e-03
      -1.8493254841341802e-03 1.9246471609057954e-03
      -1.5308133917483928e-03 8.5661101783838774e-04
      1.1633602907073620e-03 1.1636892052986827e-03
      2.3952945647002163e-03 -2.2650504756487467e-03
      2.5287807167435040e-03 -1.3288081774388873e-03
      -7.6078269073251144e-04 -2.3974205932407581e-03
      -6.1567097556772905e-04 -2.4550451659969101e-03
      -2.0194665297914079e-03 -4.5393484599494074e-04
      2.0670526686705610e-03 -1.4286995200401475e-03
      1.5193755833401176e-03 1.6001437509212948e-03
      6.6061854525575404e-04 7.5144454020521138e-04
      -1.5832582881968548e-03 -8.5068829274626879e-04
      2.3305822256111386e-03 -1.2878606820544620e-03
      4.1478542558612589e-04 -1.2017254463562359e-03
      -4.4069246579095638e-04 -1.5635863704909340e-03
      -2.0983871093812170e-05 1.0026498544624348e-03
      1.1317690796402345e-04 -5.1452835386936024e-04
      2.1118045128503617e-03 1.0621802801247557e-03
      2.5321294644884951e-03 -1.1390643432238222e-03
      -2.0036757981347496e-03 1.7314170889499391e-03
      6.9629191236917293e-06 2.0688158345708263e-04
      -1.2167102806306606e-03 -8.4588001560312830e-04
      -2.3932734020564923e-03 -1.3774006877800213e-03
      -1.7264958234849092e-03 -2.4408056547225868e-03
      -1.3030197702342545e-03 1.4223462354478059e-03
      -1.8150743848009752e-03 1.0607679553529001e-03
      1.1457832214779072e-03 -7.8212374879075978e-04
      2.3380798146733057e-03 1.8903937641332677e-03
      -2.4637757559718390e-03 -1.7327611006138013e-03
      -3.2378306990859938e-04 1.6180144935055938e-04
      -1.2961637534946498e-03 -1.5411780484630919e-03
      -2.1537375971565132e-03 1.2317466357031616e-04
      1.5599706515948475e-03 1.1229033724529734e-03
      1.5818133332635399e-03 -1.9540008608226636e-03
      -2.2558202760087150e-03 1.9116751418444995e-03
      8.3133094378275629e-04 -2.2891370683491056e-03
      2.4031849968570462e-03 -1.3613195690988339e-04
      2.4622165196933540e-03 2.2469265872351492e-03
      2.4494425977865169e-03 -2.9295322001577306e-04
      1.6263391547587558e-03 -1.6648528357311662e-03
      1.8727763036764215e-03 1.8520790954860090e-03
      6.4534836527017534e-04 -1.7195487636912942e-03
      -4.6828258247767459e-04 -6.0614827423209833e-04
      4.4961056154226058e-04 -2.0485627850883813e-03
      2.2165655611570000e-03 -1.6492413479823576e-03
      1.4803770786422232e-04 -3.0716332438940645e-04
      1.2275297819493308e-03 -7.9261346353845356e-04
      -8.7650038045191661e-04 1.7467783934365863e-03
      2.1873663002375428e-03 1.7071729699708561e-03
      1.9790759716433563e-05 -1.6041026222094910e-03
      1.5395465515133505e-03 -2.2511662081614524e-05
      1.5536478704625903e-03 1.4058071744813801e-03
      1.2250369605975531e-04 5.7198692410962270e-05
      -2.0377801436181173e-03 -4.7540037857234395e-04
      2.5022676434635475e-03 3.3698534705258745e-04
      -4.5652052671102329e-04 -6.4871204061360674e-04
      -1.4368690111675427e-03 -1.8460580862454084e-03
      1.6788573759091644e-03 -2.3169259312089808e-05
      1.0241894484573474e-03 -5.2059452859064444e-04
      1.9369844312283346e-03 1.3613665550706595e-03
      -1.4609165515413313e-03 1.6353555721958823e-03
      -1.7484303080780345e-03 -9.8769956475628002e-04
      1.9895852174061689e-03 1.3500322622759257e-03
      -4.2483851452518773e-04 1.1806367047931671e-03
      -2.1505342640950440e-03 -1.4969507753817850e-03
      -1.0560767198640789e-03 -9.2839625224441541e-04
      -5.2891810164221848e-04 3.8078254351640633e-04
      -1.8593186183068571e-03 1.4254308029464551e-03
      -1.5216629997243951e-03 -1.8371929884189002e-03
      -1.2258620193153433e-03 3.8351729596315610e-04
      2.1099175712824109e-03 1.7863209992656887e-03
      -1.2247747008538195e-03 1.8162513154208419e-03
      3.5836765706962333e-04 -1.4583466846682103e-03
      -9.4678862064250565e-04 -2.0185694331992534e-03
      5.0007426908329296e-04 3.3419538479413874e-04
      -2.2175583327624817e-03 -1.0735187867801201e-03
      9.4736631819714132e-04 8.3970004763847137e-04
      6.2358923090343843e-04 9.6438103725346653e-04
      -2.2164555538606943e-03 5.4420167816968225e-05
      -1.8052510358768502e-03 1.9240928100986337e-03
      -2.1490698847570181e-03 -2.4642684111729599e-04
      -8.7907366447753643e-04 4.6436471972906502e-04
      -1.1994013800273768e-06 -2.1401963432074326e-03
      -6.8970606255694563e-04 3.8017699352059709e-04
      -2.0592862362326545e-03 -2.5428084608797009e-03
      1.4869682197062102e-03 -1.3405091543033452e-03
      1.6968982477163824e-03 1.7704015934604858e-03
      6.4125698621222916e-04 -1.9799294755912370e-03
      -2.4456948771803062e-03 4.5459415416279625e-04
      1.2540231720655629e-03 -9.8573991260705852e-04
      -5.0831974461482338e-04 1.4804685750113480e-03
      1.4618755857651791e-03 5.2373276336358714e-04
      1.0008846415550826e-03 1.0255819283968911e-03
      5.8217573122884710e-04 -1.4314002514243861e-03
      2.4823145945763680e-03 1.3654473545955429e-03
      2.1318104993299112e-03 -2.0792807229852582e-03
      1.4158614666938980e-03 -1.4027274169071838e-03
      -2.2045368648913638e-03 1.4152284822082494e-03
      2.0776017304350481e-03 1.8025744156330470e-03
      9.9866222355474567e-04 -2.3696410317319218e-03
      -2.2997048297506593e-03 -4.1220031205319632e-04
      1.3155909968711251e-03 -1.8512591218222370e-03
      7.2309700106338800e-04 -6.7249481941697139e-04
      -9.3880677162632526e-04 5.4085995937998971e-06
      -1.2568627966251663e-03 2.3540797354095421e-03
      1.9258483297359360e-04 2.0414061453407719e-03
      -5.5441016609146411e-05 1.6725815764287602e-03
      -1.5141144667079401e-03 -8.0722320790434969e-04
      4.8796252411046546e-04 1.2086175359074178e-03
      1.2514949110977117e-03 3.7731660468528301e-04
      -2.4826689300271616e-03 1.2886341754009213e-03
      -5.3360375401134501e-04 -1.5712886999594831e-04
      1.1766592042732685e-04 6.8167344273453528e-04
      1.3105015618259488e-03 2.4140224040915858e-03
      2.0326166271387794e-03 3.8221501712223189e-04
      1.8753598136256482e-03 1.5706139240755106e-03
      1.4080165751850481e-04 5.4730393808934119e-04
      1.1817469450253414e-03 -7.6467872788588717e-04
      2.2710444851607738e-03 1.4284207686235297e-03
      -2.1640394359977761e-03 2.4457893471332356e-03
      1.0302372038769772e-03 -6.6290070468812839e-04
      -1.4451298252028944e-03 1.1914342813724884e-03
      -1.0918813788870273e-03 -9.1364733944037930e-04
      -2.4583099820259641e-03 -6.8171030556053613e-05
      1.2496583613574785e-03 6.3776170489075507e-04
      -3.8683981927118051e-04 -1.8659025885716541e-03
      -1.9792176715292720e-03 3.6679595765748348e-04
      -1.6397670071395846e-03 2.2832643959672383e-03
      -1.6444973995184962e-03 -4.3799719571041755e-05
      -1.9234802182087976e-03 1.9955441270866278e-03
      7.8379081026646973e-04 -6.4226866380196466e-04
      -2.2320138745057973e-03 1.1573243959949119e-03
      -1.6460949203925604e-03 -2.0755162909711178e-03
      -1.2109553474629624e-03 -9.6223127535712103e-04
      -2.4556823726113244e-03 -2.0884822605287236e-03
      8.3647399913376011e-04 -1.1715070707087234e-03
      2.4278281631352622e-04 1.1581771796937818e-03
      -4.0330837013380296e-04 1.5824098313722309e-03
      -1.7101300713433915e-03 9.8356730709377085e-04
      1.6734374921022789e-03 -2.1473635452652425e-03
      -1.1191184655680651e-03 -2.3292075670681387e-04
      -3.0185425824921211e-04 -2.4501754057127340e-03
      1.5519678781633105e-03 1.7895093487173177e-03
      2.2824508221209183e-03 -6.9918115323958703e-04
      2.0545364196580111e-03 -2.3435375089882133e-03
      -1.8624521674573851e-03 -7.1530963808762377e-04
      1.1792094761575828e-03 1.1042226654290843e-04
      -2.2926958353979734e-03 1.0962807321928645e-03
      1.6831733648141063e-03 1.6013711343898489e-03
      -1.9381831863357066e-03 -2.3382058752455916e-03
      -3.0810437302436147e-04 -1.8981676633092390e-03
      -2.3042132699242283e-04 -2.0610169473894739e-03
      2.5842750669696794e-03 1.4309275739700636e-03
      1.5143113665246092e-03 9.0615531771475757e-04
      -1.3587519638244719e-03 2.4651313105914078e-03
      1.5240451687102117e-03 -2.4282771561775010e-03
      1.6318612250107445e-03 3.3842549473152013e-04
      3.0722036925785279e-04 -7.3227304338553559e-04
      2.0044199844071438e-03 -2.0345171809719943e-03
      2.3343011015022606e-03 1.1342255738478880e-03
      4.9593631029242922e-04 8.5410644862180007e-04
      -1.6293632787721685e-03 -1.3219935808418687e-04
      -5.1521000701130115e-04 -1.9641604846128209e-04
      1.4276188815836748e-03 2.3182068196054752e-03
      -2.0848562959408495e-03 -1.1070846748979814e-03
      1.7618235901167869e-03 -2.5618360897068618e-03
      2.2319216860293978e-03 -1.4248873289222749e-03
      2.5075396377822925e-04 1.0416372922339577e-03
      1.6182438616021888e-03 1.8310740123394638e-04
      -2.4202149852918923e-03 -1.4834529333748094e-03
      -2.1989756480028512e-03 1.6468337552542516e-03
      -9.1285134929262543e-04 1.5151216860828597e-03
      -3.0812673440370157e-04 1.5911389626931650e-03
      -6.5570337213540647e-04 -2.9035718609049234e-04
      -1.1680406412625435e-03 -1.1102282096722368e-03
      -1.2260975208491212e-03 -1.9098697270013918e-03
      -2.1367898873433620e-03 2.3938318505867615e-03
      1.7692072442782559e-03 -1.5633724628327972e-03
      1.9480833401877196e-03 4.9223404527388764e-04
      -2.5238726703305072e-03 -1.3079980521101626e-03
      -2.4689822304553876e-03 2.2754617926418891e-03
      -1.0526081234787173e-03 -3.6487051617187715e-04
      7.4661993505201955e-04 8.8176955885737579e-05
      1.4204778018725263e-04 2.2194126952998438e-03
      -1.1465519056710516e-03 3.3471743796456343e-04
      -1.3690072539198063e-04 -1.5037947783071259e-03
      -1.2131881101341631e-03 -6.5869390660468262e-04
      2.5136147601643034e-03 6.3911516776470122e-04
      -6.0170081568829549e-04 -1.5975527086024247e-03
      -1.5081125850617896e-03 -1.2483711438428058e-03
      1.6958192197941697e-03 -1.6874047182942665e-03
      2.0406328032924535e-03 5.4109352823225913e-04
      2.3572418043326508e-03 -6.6461234673784175e-04
      -2.2344712809501109e-03 1.7370420343524328e-03
      -2.4953692649923817e-03 -2.1902626961608791e-03
      -1.9654842893343217e-03 1.1293036224160132e-03
      -8.5480809002626572e-04 7.9639741538591817e-04
      -1.9809337215259256e-03 -2.4630292053501096e-03
      1.2599241735902565e-03 8.3371238203419936e-06
      2.1592955624610472e-03 2.1999471951598660e-03
      1.1908400715213755e-03 -1.1157910434807460e-03
      -2.4904038560582875e-04 1.9828792170721488e-03
      -1.3476219811589117e-03 1.6144009070914120e-03
      4.8018778456202432e-04 2.3727915737910585e-03
      -2.1034541822378084e-03 -2.1415394661600902e-03
      -2.0942570282149673e-04 -1.2922274163676011e-04
      -9.7633837759629482e-04 1.0675545593480118e-03
      2.4247779846677262e-03 1.6104579019445920e-03
      1.0372634287889719e-03 -1.3263478651929445e-03
      4.8783615052579307e-04 -2.3871620269005785e-03
      2.1658669210854781e-03 4.0543591949549873e-04
      -1.4967398316167893e-03 9.9766840101011352e-04
      9.5842339174919401e-05 -1.4131016345175648e-04
      -1.8496277487055810e-03 -3.8688260955722497e-04
      -7.2722988927389869e-04 5.3577705431732210e-04
      6.4167778067824818e-04 1.3213568390607301e-03
      -2.8343058822535193e-04 -2.2457459230124043e-03
      1.0844417227544930e-03 9.4519626124856611e-04
      2.7932098715385535e-04 1.6473504067753258e-03
      1.7313164229988214e-03 -1.9908499722539157e-03
      -3.4302859497689360e-04 -8.8577477050569438e-04
      1.1383949943254825e-04 -8.2428983473605184e-04
      2.4935082164892781e-03 1.6620632511049668e-03
      -1.7924774336673535e-03 1.4014582207323013e-03
      1.9521544230356070e-03 -4.3369631488864012e-06
      -2.2558503169665257e-03 -6.3522439460446671e-04
      1.1794046097692999e-03 -5.8840801530963866e-04
      -5.7352567867470278e-04 -2.0118437580888137e-03
      -1.3476482375602335e-03 1.3548378242118010e-03
      -1.7252890213117569e-03 -9.4683011213765925e-04
      1.6393767554926939e-03 -1.6294771394427603e-03
      2.5219725353717230e-03 1.6091874831158180e-03
      1.7540571965168929e-03 -1.3138946119233880e-03
      -1.3818338026690637e-03 1.2919432192977096e-03
      5.2065326746362215e-04 -1.4259099601866515e-03
      1.4388457219316937e-03 2.1229797614214863e-03
      2.3265137146770715e-03 -9.4943249687301544e-04
      -2.2401223218766913e-03 -1.0299216535163650e-03
      -2.3407606355034072e-03 -1.5261092614926182e-03
      -2.3265652824038833e-03 4.7096330133939405e-04
      -2.2141228230922556e-03 -1.0368395841838908e-03
      -2.3902130000099330e-03 -6.7511542148368335e-04
      -1.2864807580300723e-03 -7.2476447770544576e-04
      -2.1492792608209699e-03 -1.8627811264475247e-04
      -2.3201687831470703e-03 1.1290287380168712e-03
      -1.8669768818578415e-03 2.2362722195235735e-03
      8.0332181871714059e-04 -2.6364440904096234e-04
      -1.0969783726154777e-03 -1.2612401614405214e-03
      -2.3146101162683252e-03 1.8099731669868398e-03
      2.3059498799041142e-04 -1.4460718159596216e-03
      -4.4575466122235706e-04 -9.1976276145972413e-04
      -3.3430557980620768e-04 1.3008530129872023e-03
      -6.2276622778126517e-04 9.5453722034921510e-04
      -2.1125038787852216e-03 -2.0708700987723499e-03
      1.3896253439127217e-03 -1.6220540185531104e-03
      -6.1094991801359757e-05 -2.4033101651940400e-03
      2.0200620487014569e-03 1.3401661262286558e-03
      1.7378402962273996e-03 1.2622001108558072e-03
      2.1219500594079161e-03 6.8735298374746859e-04
      -9.4233822913175277e-04 -1.5570917301707494e-03
      9.4202241748686814e-04 -8.2246624124944297e-05
      -2.0779578190614528e-03 -2.3425124091877416e-03
      2.4800072015925679e-03 -3.7517521843828569e-04
      1.5333096958438271e-03 -2.0463205170469185e-04
      -9.6729401694072340e-04 1.0278042168776680e-03
      -2.1471447447724110e-03 2.2219113751527934e-03
      -7.6046705465305554e-04 -1.4477190878338095e-03
      2.2969418109218087e-03 -1.0498357161568637e-03
      7.5893157523197209e-06 -5.1427017222484869e-04
      -2.0741507888035832e-04 -1.2750270045966054e-03
      -1.0205244621941986e-03 -2.2674548856424664e-03
      -1.3183111555557783e-03 -2.1033634975185676e-03
      -2.2761261064939906e-03 -9.1252804572785587e-04
      8.5654489175597992e-04 -1.9076068142659392e-03
      6.5237747732591148e-05 9.3643072674621847e-04
      -1.3167067929967476e-03 -1.8707731569319669e-04
      2.1096796350695396e-04 7.6982404271420371e-04
      1.7329578598765589e-03 1.5787247828741168e-03
      -1.5179642873671131e-03 -8.7803738569985153e-04
      4.3472526194037012e-04 5.6108848391255299e-04
      8.1344258797895409e-04 -3.0913411210118117e-04
      -1.3031592582726976e-03 8.9551951712634685e-04
      1.3912398855951233e-03 1.0562222524353839e-03
      -2.4191583006407012e-04 -1.3910501813282044e-03
      -1.1338867673053499e-03 8.0296326768569399e-04
      1.8205861206110248e-04 1.5261867539824105e-03
      -2.3428463568896710e-03 -1.2240567201625651e-03
      -9.6631872044087251e-04 2.6675942656919824e-04
      -8.5755558735715973e-04 2.1016492322200953e-03
      -1.2781205696404214e-03 3.2698463444199926e-04
      -5.4219878123946041e-04 -2.4234602196634945e-03
      -1.5195794717596999e-04 -1.1159745783324152e-04
      -1.2754761472135786e-03 1.8740413463363139e-03
      7.1723437773865557e-05 7.0681783326243908e-04
      6.2635235000914981e-05 -1.9164362505714274e-03
      1.7087481195290730e-03 -2.1696413633305617e-03
      -2.9219060401943685e-04 1.1382689203266938e-03
      -1.1539536179386771e-03 -2.0406751141909523e-03
      2.6531530683694866e-04 -1.8971258327623304e-03
      -7.3802756998401673e-04 -5.6600145153860144e-06
      -2.3373421163277400e-03 6.1385090351922774e-04
      -2.1614650108792610e-03 1.7154924714512978e-03
      -3.2312846534339213e-04 2.1057069694721407e-03
      -3.7232250150414617e-04 1.8566350946428575e-03
      2.2811978958039861e-03 -1.0426359743104729e-03
      1.0763833965110746e-03 -2.4059253182243359e-03
      1.9347237773982432e-04 2.3471026210998363e-03
      5.9245486328478314e-04 -1.2721968826263702e-03
      -1.4765407922161216e-03 4.7361676204731853e-04
      2.0528567978636831e-03 2.3960840416291378e-03
      2.2891213066334138e-03 1.2260727197541549e-03
      4.7076443270880312e-04 -1.8989075810434202e-03
      1.5614734726158710e-03 1.5756456005196256e-03
      -1.9407772307120661e-03 -1.8114495270365185e-03
      1.7837455557398541e-03 -7.8965220393009000e-04
      1.2194176206592926e-03 -3.9373441084868441e-04
      -7.0036304922911543e-04 1.7669639648478135e-03
      -7.6998449352049783e-04 2.3700409985625667e-03
      -2.3310014938941756e-04 1.9394414123851826e-05
      1.1251285611750094e-03 -1.1411157294395837e-03
      -1.8065037803539484e-03 -1.3750306883229082e-03
      1.5184359208290611e-03 -2.5577932330219425e-03
      -1.5315560569063270e-03 1.2450623862970492e-03
      -1.6769463282852266e-03 -1.1407877696454607e-03
      -1.7450602488574770e-03 2.3707486576198195e-04
      2.2397168151562005e-03 2.4220829391889110e-03
      -1.1825633399235272e-03 4.6799572598169991e-04
      1.6521004652817952e-03 2.0649586365204982e-03
      1.8520543735109361e-03 1.4466576111475499e-03
      -1.0408105381045029e-03 -2.4429848070626158e-04
      2.1278611551909612e-03 1.1052344849717616e-03
      9.1089933745043311e-04 3.7423707290461141e-04
      1.0766520363299718e-03 -5.4924400659971080e-05
      1.4747365807939088e-03 -2.3342038998617810e-03
      9.3863755278867191e-04 2.0868864267757263e-03
      1.4353976223345937e-03 8.0670722930146273e-05
      -6.6601619693575488e-05 -1.1728615964104660e-03
      1.2641911193869706e-03 1.4600304651329560e-03
      2.4609058252736652e-03 1.2192572683549512e-03
      -1.4261947267697258e-03 6.6948891517977537e-04
      -1.4088055714047633e-03 2.1666629295697421e-03
      1.8462668773158160e-03 -1.5914993803691688e-03
      6.7238500974824689e-05 -1.0998054362592301e-03
      -1.1244515633596840e-03 2.2465617770209213e-03
      -1.3860609169086692e-03 8.8414290736526352e-04
      1.2418506404166746e-03 -1.6415465303808944e-03
      2.4166337702832010e-03 -2.1111835766581674e-03
      2.2585166705138405e-03 1.5041022026570572e-03
      -1.9402429626209854e-04 1.5635912823090561e-03
      1.0527846433361755e-03 -2.4169009030789610e-03
      -1.3854918430142484e-03 1.1361739990135213e-03
      -1.2725678100463907e-03 -2.2918120002442043e-04
      4.5706989180679627e-04 -1.2491618415399546e-03
      7.7696310751877891e-04 1.6452238744204136e-03
      -1.7248358245805401e-04 -2.0240745936171011e-03
      1.3772838039329447e-03 1.4563748305047501e-03
      -8.9460343635394412e-06 -8.8048899602689618e-04
      2.3318587350374203e-03 2.2810023990172744e-03
      -5.4024944613879249e-04 -1.8062263539025743e-03
      2.2589095719825567e-03 6.2317448038875340e-04
      -1.6378367687758216e-03 1.9693113426982930e-03
      1.6062785701707767e-03 -1.4651675207955888e-03
      -1.0536184707310462e-03 2.5578790769550616e-04
      -8.9609605955051329e-05 7.0863529884173976e-04
      1.1717752916543889e-03 -6.5315598326807719e-04
      1.0237435601995993e-03 -1.8723753304900521e-03
      -5.0490023417727335e-04 -8.7468650342374665e-04
      1.7086922934829211e-03 -1.1177371690212737e-03
      -1.0977192298165536e-03 1.1708706722467967e-03
      9.3807082562001153e-04 -2.0463162470105429e-03
      3.3340087556159629e-04 8.0738156914729627e-04
      2.3864595936154368e-03 -2.2633912999653308e-03
      -8.8443685462903025e-04 -1.0945426654387529e-03
      2.1114512972206503e-03 1.6292350416410603e-03
      -2.0214387742166955e-03 -1.5304206143414241e-03
      -2.5543792238464612e-03 -1.3190252779464999e-03
      1.3667392178958392e-03 -1.7589560372211733e-03
      1.6363905741839570e-03 1.3785901492832497e-03
      2.0083151546723349e-03 1.8272778278342235e-03
      6.9828899729658671e-04 5.1735722337835604e-04
      5.1785538133258347e-04 -2.2195795021714851e-03
      -1.9206163588961576e-03 -2.3564656836951659e-03
      8.2126803989862628e-04 -4.2084850458190711e-04
      -2.3587344326903787e-03 9.1357249180923600e-04
      1.9292145995443890e-03 -2.1951551430501085e-03
      -8.6467205170623806e-04 2.0450267767225462e-03
      -1.1554535384737091e-03 1.8222234801288639e-04
      -1.0240729083307129e-03 -2.4259810056627643e-03
      1.2909672784429216e-03 -1.4727425877345641e-03
      9.8566882800872960e-04 -1.7897816937535529e-03
      -1.5935451973514072e-03 -1.0374744319149859e-04
      -2.0618520102469022e-03 6.5600387690814999e-04
      -1.9672737562515623e-04 2.1460499370567288e-03
      1.1049065731680995e-03 -1.1124302738558074e-03
      -2.4493817607904389e-03 -1.9128838029790416e-05
      1.5226777457462066e-03 4.8162380028477479e-04
      -2.2248485088827374e-03 -1.3337644822310629e-03
      -1.2570264942768554e-03 -1.3471148801908305e-03
      -1.9327819353228107e-03 -8.3674110324846740e-04
      1.6038869237644995e-03 -2.3718096809756768e-03
      -2.3197604221525925e-03 2.1373903023772325e-03
      1.7335641348217687e-03 -5.4834811514299929e-05
      1.8489978706990979e-03 -5.9709966640714032e-04
      -7.5408931194511839e-04 -2.6701187113072674e-04
      -1.6205887633824940e-03 2.0358579351147518e-05
      1.4710876347898301e-03 -4.0469844855370448e-04
      -1.2499106254333717e-03 -2.0022857787331330e-03
      -1.6101205454131292e-03 2.1193049414988722e-03
      -1.0145529383584655e-04 -4.9366862534875374e-04
      1.8996068578570392e-03 1.2751935717241465e-03
      5.5986018710755094e-04 2.3401255253264319e-03
      1.8574524887066375e-03 2.5449263979385205e-03
      4.9174117610266280e-04 2.1159212455854250e-03
      -2.2518042367263066e-03 2.4168842712453172e-03
      2.0128130992059924e-03 -4.1407593537220707e-04
      -4.2911295418353003e-04 1.9337204557676676e-04
      8.1521574437030627e-04 1.9337108456058407e-03
      -2.0227188024618029e-03 5.3144872838818893e-05
      -8.3253476628240397e-04 -1.7613601221703166e-03
      -5.3310785367231958e-04 1.8644099487470393e-03
      -2.4323731400010648e-04 9.4286154477943979e-04
      -2.5086734848478748e-03 -1.2774683424536522e-03
      -2.0728466905956451e-03 4.9523821117368232e-06
      -5.3542046750893011e-04 -2.1120917059856094e-03
      8.8868961566093609e-04 -1.1822627199413681e-04
      -1.5608568662101197e-03 2.4843638094590916e-03
      -1.4643507096143977e-03 -3.0941395677795995e-04
      -1.2020835393391559e-03 1.2402720079093296e-03
      2.8467446622635289e-04 7.1301419407129364e-06
      -1.9520772735413894e-03 9.6478133724800226e-04
      1.6748590481547787e-04 -1.8426482634378873e-03
      -2.5044088343399019e-03 2.1328752650343042e-03
      9.7940098225204691e-04 -1.1246740974158590e-03
      -1.2147735505715627e-04 -1.9877965366416608e-03
      8.3164271816482465e-04 2.0051486555808354e-04
      1.0971990663864980e-03 1.7896879019800433e-03
      -1.1643265276362258e-03 1.4704769451938369e-03
      5.5558269047500654e-05 1.6323857113135344e-03
      2.4622543811438904e-03 2.1903342252888904e-03
      1.7804830544741793e-03 -2.3797625596339120e-04
      -8.2481057183995520e-04 -2.0514012269355376e-03
      -2.4228625125908812e-03 -6.5185124875874608e-04
      7.4441134276044952e-04 3.9274501889417248e-04
      -5.9630297485111508e-06 -2.0094444388413569e-03
      1.2786259815994892e-03 1.8483514612749267e-03
      1.0924476856528156e-03 1.3703479507249977e-03
      -2.2618816221256842e-03 -2.3716226246977214e-03
      -1.9177022292146152e-03 9.0703075697015916e-04
      6.5955289830785821e-04 -2.1405205958201765e-03
      -7.2486270088028117e-04 -1.0917630964900787e-03
      -1.9541590888534077e-03 4.5156899081024321e-04
      5.4002040559780588e-04 2.2391480353225472e-03
      -1.6010439034394876e-03 -1.1174760230132437e-03
      -1.4513431825391224e-03 -1.6545687068442430e-03
      1.1090023763992985e-04 2.1829173709937335e-03
      -1.2808192632084585e-05 2.1697119832870169e-03
      -7.6337168974958383e-04 2.2633557524947543e-03
      4.0524618451984639e-05 5.4523635759113750e-05
      1.4157782376254793e-03 -1.9231674831963266e-03
      -1.8932437268725808e-03 1.5073124817033645e-03
      3.7344011120402901e-04 -8.6869773231547463e-04
      -1.2680638710081300e-03 -1.3827853288151163e-03
      -2.4490457569583558e-03 5.2371653024836163e-04
      1.9584453219989749e-04 -2.5647546898701148e-03
      -1.2653929498345172e-03 2.4321291893376284e-03
      1.9017588273957724e-04 -1.2950321640435746e-04
      2.1116820088001718e-04 -2.5063244525518314e-03
      2.3174843074760293e-03 2.3703290141336010e-03
      -3.6058830986179390e-04 1.9146263822081034e-04
      2.2402937356027111e-03 -6.2038563732430443e-04
      -1.4608700166401033e-04 -2.5238414107063888e-03
      1.2232485752911701e-03 -1.8069679075870422e-03
      1.4890151317399774e-03 -1.5688944252391836e-03
      1.4129163617445123e-03 -1.6156236797334014e-03
      -2.2620988399443161e-03 -2.0706874204191542e-03
      1.4349816376438445e-03 -1.7463602319458989e-03
      2.1817553520688412e-03 1.4467103983496668e-04
      -1.1724437719222628e-04 9.8614374930735497e-04
      -1.7665636932215666e-03 -1.7985206166301598e-03
      -1.7483065489274576e-03 1.0416612453915328e-03
      -6.9465676803768140e-04 9.4447508393708576e-04
      -1.5267275218472484e-03 1.8295771591948728e-03
      9.6953962075818861e-04 -9.9392849179309999e-04
      -7.3097023780072177e-04 2.6675306304554583e-04
      -1.5464926200893063e-03 9.6547801613610827e-04
      -1.5578704392336204e-03 8.4205199240670523e-04
      1.1698925172979224e-03 -1.2388398128443323e-03
      1.9213094907484368e-03 -2.4497799371165523e-03
      2.0066934473987720e-03 6.2195149160357212e-04
      -1.5733874072776375e-03 -1.3696762914861133e-03
      -1.4945779303445945e-03 -8.2776287529063588e-04
      -2.4044493893098261e-04 7.9893859090071390e-04
      1.3099632069729372e-03 -1.2885111047884821e-03
      -1.5644851907123676e-04 -1.5504517786691951e-03
      -6.2628264378689893e-04 -1.9526103537071894e-03
      -9.8247045285828954e-04 -1.5996194427097578e-03
      -2.4940779379795572e-03 2.2683570538071353e-03
      -7.6993889664623313e-04 4.2094254399625320e-04
      -1.1305654065264263e-03 1.2487757615669366e-04
      -2.1604363927702477e-03 2.2931492808278692e-03
      -4.8341656376202434e-04 -1.4515095718522122e-03
      1.1619898678576424e-04 1.5481799146082201e-03
      4.2970252450648524e-04 2.3250424855989168e-03
      7.9994662472992648e-04 -1.2223202810220709e-03
      -1.6781065367827426e-03 1.6101113728099856e-03
      1.1868217938447743e-04 4.7767607185156567e-04
      2.3646008263025439e-03 -2.4435133001296312e-03
      7.4541986055243041e-04 -1.0804295122069107e-04
      7.7804291178180409e-04 -9.9777655654179997e-04
      4.1327737941031375e-04 -1.8922053427454541e-03
      -2.1389454383365951e-03 4.7413301363747706e-04
      -1.9107701627933960e-03 6.4507679697195416e-05
      2.1185345878680806e-03 -1.3643864915515436e-04
      -3.9973695293944403e-04 -8.5327728413601089e-04
      -1.2835694688563949e-03 1.0091674883811791e-03
      -1.8476756500716040e-03 -2.6134083375851090e-04
      1.9629841435056992e-03 -5.2619050335494209e-04
      2.1391098997138001e-03 3.0275713181691450e-04
      3.4308098103383555e-04 1.3250876641474588e-03
      2.1235827383093166e-03 2.3586199646172426e-03
      -2.0807983213429831e-03 2.6708545569179216e-04
      -9.9958582007922750e-04 -1.5609172498040815e-03
      8.8231673679818709e-04 -2.1961491974690425e-03
      -1.8156146129875729e-03 4.9862235128765695e-04
      1.8941612052239356e-03 -1.0064225655006310e-03
      -4.1393491328725336e-04 2.0745700979416756e-03
      -1.6492468407649779e-03 -9.5647146933105457e-04
      1.9180515120646908e-03 8.2584449829846364e-04
      -1.5492224255761247e-03 7.0034821644546238e-05
      -1.7575905650533306e-03 -1.3955618207883971e-03
      -2.4158287006353246e-03 -7.9009891507265972e-04
      1.9498814435534122e-03 1.2985831644835941e-03
      -2.4054687335014536e-03 2.2165943474402889e-03
      -1.3891500894396833e-03 1.3559683925886815e-03
      2.2013518536320577e-03 6.8136429760556330e-04
      -1.9453834900359551e-03 -1.0029452343067310e-03
      1.5739434032808529e-03 9.8355587241065684e-04
      -2.4530239158810849e-03 1.4142496924258593e-03
      4.4995950376675633e-04 1.5119488817913816e-03
      1.8796627376977077e-03 -7.3005498003465873e-04
      -2.5024999038385401e-03 -2.1546005375885995e-03
      -2.4687751391457890e-03 3.5616133900987353e-04
      -2.2217747371730554e-03 1.2166542653693391e-03
      3.7741490189208214e-04 8.5239821507323871e-04
      6.4711441140972981e-04 1.7296317881910293e-03
      9.9722878016396204e-04 -2.0980282385428583e-03
      -1.4014923590925559e-03 -1.3228081734773720e-03
      -2.3904234598502391e-03 -7.7946217987251041e-04
      2.2492507578801809e-03 2.0254984733364699e-04
      -2.1313963182419066e-03 5.8170334627368348e-04
      1.6404408646428521e-03 -1.9961738170406586e-03
      1.3571737433746012e-03 -6.1201349338752410e-04
      -8.1854986522521755e-04 -2.2105857557767413e-03
      -6.1118141094320985e-06 1.2631967823625257e-03
      -1.2802938993910222e-03 1.2691726212838133e-03
      -1.1731724701800213e-03 -1.9832346160225615e-03
      2.2440095339683555e-04 9.3721607194999701e-04
      -2.3697930921043318e-03 -2.0143640049977100e-03
      -1.6986369003300322e-03 2.1219462612830685e-03
      2.3618078691620816e-05 -1.0284744522251581e-03
      1.9578612319568790e-03 1.3053238120600923e-03
      -3.5369165357449769e-04 1.4943696029870738e-03
      1.9133473504181369e-03 -2.1955749064601223e-03
      7.9875814610183354e-04 2.4222092717799521e-03
      1.5819893478806355e-03 1.9211308311015607e-03
      -1.7470035080553775e-03 -8.3704328387911248e-04
      9.6829215606503757e-04 -1.4603417062884969e-03
      1.3796850696801959e-03 1.6993747350359690e-03
      -2.2622120024172699e-03 -1.1466820621767028e-03
      -2.1521404017176508e-03 9.4627474372113425e-04
      1.2842303202111602e-03 -2.9954362816229815e-04
      9.6586451299010936e-04 -9.7400932646314717e-04
      9.4142000896090298e-04 1.9720061243445630e-03
      9.0471949905660302e-04 -4.4613690737334527e-04
      -2.3253057272814223e-03 -1.9863786633084915e-03
      -1.7737650600805203e-03 -1.9399875338518141e-03
      1.8984349859532471e-03 -2.8335834694959416e-04
      -1.3536623360674866e-03 2.2124703431214685e-03
      -1.1749883799833816e-03 1.4993361810594443e-03
      9.7099206616333854e-04 -1.0710635351859356e-03
      -2.0358621088286443e-03 -9.4480331400153856e-04
      2.3344826171336121e-03 1.1807833845530226e-03
      -8.7761454646586060e-04 -1.2353315909023369e-04
      -8.0335361543655049e-04 4.5577445643688806e-04
      2.2180949941159682e-04 3.5022105571153538e-04
      1.9848487674135316e-03 -1.8387883160875911e-03
      -6.0637534695833016e-04 -9.0884991866162310e-04
      -1.8665454937010582e-03 5.7358990389163255e-04
      8.0909703840014130e-04 6.5933070316745934e-04
      -5.1897363988729196e-04 -9.4741204381995972e-04
      -1.2571615710279726e-03 -1.2138882889970318e-03
      -1.5418926208197472e-03 -1.0699220340385810e-03
      6.7595297667280216e-04 -3.9672694253009664e-04
      -6.1454605186656301e-04 3.5734698442924383e-04
      -1.2101541301683162e-03 -1.4835130180289135e-03
      2.3534868929401616e-03 -1.6976856257526927e-03
      1.0094420995380344e-03 1.9505111304965884e-04
      -4.4332313332659462e-05 1.8961613325118541e-03
      8.3857292905201901e-04 -2.4789631788720030e-03
      6.0186576002711366e-04 1.9878961684323174e-03
      5.0933095074148652e-04 2.5644088533023120e-04
      1.5898499037294846e-03 -8.0228044353265629e-04
      -2.1993694694199652e-03 -1.8787978654591457e-03
      -8.8317091063857894e-04 2.0158390148842182e-03
      1.7670915153813762e-03 -7.6900301032427430e-04
      -1.3267950822485669e-03 9.4482941908308443e-04
      -1.1486195656518455e-03 -2.2219924700944342e-03
      1.4092482511211544e-03 9.9855044972856221e-06
      -1.0721747125446996e-03 1.6645866224783417e-03
      -4.9863841668352214e-04 -1.4214526821695443e-03
      1.3887358044228115e-04 2.0645733808680468e-03
      -9.1143878255075909e-04 2.1450319790548822e-03
      -2.2482512496480129e-03 -1.7123216312213206e-03
      -1.3849697400611205e-03 -2.0542317228234726e-03
      -9.4012230610324707e-04 1.5713923560570164e-03
      -6.3850265226090077e-04 2.0588417154236206e-03
      1.5551729695337546e-03 -1.2078321736394238e-03
      -8.0375728830253776e-04 -1.3155294732831739e-03
      -2.3647171717809685e-03 2.4513476925293698e-03
      -3.8502160186469809e-04 -1.2220665660401641e-03
      2.5134747582696427e-03 -1.4761525216873020e-03
      -1.6698435133360690e-03 -2.2606408690568447e-03
      6.1072398660230753e-04 -6.1524860411425416e-04
      1.5584119865881345e-03 -1.4412059969588053e-03
      -4.9175447209385268e-04 -2.3452895160692148e-04
      -8.5809990811939796e-05 1.5762307778279337e-03
      4.7262857575803489e-04 1.2473238763832928e-03
      -2.5059983701819018e-03 -1.0566878418432827e-03
      -1.7916834807598819e-03 5.2287364535285197e-04
      1.2239853777674507e-03 1.4165862708390912e-03
      2.1109657794234830e-03 1.6031154890147099e-04
      1.2056593675951928e-03 -9.8148672187268245e-04
      1.3791357619237627e-03 1.1813014091378388e-04
      1.3141900564285320e-03 1.0782415456816034e-03
      1.8989086266387187e-03 -2.4801489856253818e-03
      1.9202140573381778e-03 1.0542311393290241e-03
      1.3204812731180261e-03 2.4558970140953133e-03
      -2.2546744688787105e-03 1.4765874787338032e-03
      1.8534027541395538e-04 -6.0238549128641898e-04
      2.5294915317457096e-03 -1.1113053973244174e-03
      -1.2283959765385958e-04 1.6589138856342620e-03
      9.4011605614009654e-04 7.1512608994766917e-04
      -6.2288209155210190e-04 -1.6996532758902670e-03
      1.5081394203849987e-03 2.4283736835870365e-03
      -1.5737557268805187e-03 -1.3762074889144659e-03
      1.3560371120027370e-03 1.1416508887659817e-03
      1.7265272460525725e-04 -2.2392941021406477e-04
      1.3723690838741989e-04 -1.7808758227519836e-03
      2.4598041566532549e-03 1.7401196464328068e-03
      -2.3256723550779232e-03 -2.1750313231381989e-03
      -1.0881428099870265e-03 -1.3967310638904348e-03
      4.0571252470324729e-04 1.2826882309743576e-03
      -1.0602744257067664e-03 1.0464663100125456e-03
      -1.1199069769714297e-03 2.3793012283257358e-03
      7.3759180067113834e-04 -1.6843812189099342e-04
      1.0831731441969948e-03 1.7032241006596548e-03
      -1.7263090454296204e-03 2.4813183435127744e-03
      -1.1254853082155319e-03 -2.3498480570524468e-03
      7.3987401152873094e-04 2.0419998893691210e-03
      -1.5788391330548350e-03 1.6309481302743962e-03
      -2.5200908214880217e-03 2.2517537958314402e-03
      3.7075210672343805e-04 5.9731394273300291e-04
      8.5561614888315105e-04 2.0753179710796361e-03
      1.2623804887674694e-03 -1.5702281997539526e-03
      4.1574958875883790e-05 -1.2556280270141643e-03
      1.8130599637885875e-03 -3.7486540024763207e-04
      2.5343246402589792e-03 1.6268795017639157e-04
      -2.0746054570007326e-03 1.5917963338245894e-04
      -1.9156823100098482e-03 1.2359155394071012e-03
      -2.4798268583856196e-03 9.7335350097650362e-05
      1.7743806116449340e-03 -6.6560819153699724e-04
      1.8239183222061633e-03 -2.5280260727151638e-03
      1.5223903860657035e-03 -3.7375706410826281e-04
      1.3843286248659097e-03 5.5465549832196641e-04
      1.6429292526391147e-03 -1.2011376279375257e-03
      -2.3517731394277095e-03 1.3091332474374556e-03
      -5.2985020999931081e-04 -6.2843297618149876e-04
      -1.0046338687651787e-03 7.3053386413245668e-04
      -1.4251225798383059e-03 -1.5890473498686717e-03
      -8.0762309645902435e-05 -1.3598342427780033e-03
      -2.3329599160474835e-04 2.1944935225832502e-03
      -3.1341928430198013e-04 -2.1922263295850375e-03
      9.7071599040508046e-04 -6.0095353360470230e-04
      -1.0077192213966163e-03 -1.6419727606589401e-03
      5.0062523016231519e-04 -7.9409760698395627e-04
      2.3268245151482894e-03 -2.0468511316547454e-03
      9.2268684687723699e-04 -1.4314526758790267e-03
      -8.4419261471443789e-04 -1.1969432282164984e-03
      1.8446382604288426e-03 2.3847812536233358e-03
      5.5158385214071565e-04 -2.0539159806931984e-03
      -2.2647566972810321e-03 -1.2628191512540651e-03
      1.1407262941905308e-03 2.1487395153413848e-03
      -4.7508851702659301e-04 1.2692018152679002e-03
      -2.4660597771764283e-03 -2.0416373966926577e-03
      2.2137754427938965e-03 1.3502825186573373e-03
      1.4719360545103945e-03 -2.3465435388210190e-03
      -1.5276287578448759e-03 -2.5793101753537207e-03
      -5.1924723391230166e-04 1.5539785870332219e-03
      -2.4201102895537148e-03 1.7466410681558149e-03
      6.3910461728594321e-04 -1.3580609603487308e-03
      4.2472001109238287e-05 1.8645721533267363e-04
      8.4512351475353009e-04 1.1142599147828771e-03
      -1.3356634894867308e-03 -3.6212014051385967e-04
      -2.2966934939481890e-03 1.9719099116868076e-03
      2.2489214812416091e-03 -9.8434573254274800e-04
      -2.3646822055203901e-03 -5.0097484966022668e-04
      4.6597902949478708e-04 -1.0127771509833752e-03
      -1.4790635154697787e-03 -3.6178672657465933e-04
      -1.1247278916798088e-03 2.1313179137396844e-03
      -1.4050098584243489e-04 -1.9379884581442455e-03
      2.0459234548227141e-03 5.5426752087562084e-04
      1.5580987702582152e-03 -1.6592700571560091e-03
      6.8541150144384015e-04 -1.4185491821169468e-03
      -1.1243757311370922e-03 1.7037839999180647e-03
      1.7760356005650851e-03 2.7166019658182066e-04
      -6.6032413410801761e-05 2.5261432233031028e-03
      -2.1638512433223623e-03 -2.0983609924951603e-03
      -1.8739297276718341e-03 -5.0356108291084347e-04
      3.7853657973991824e-04 2.7217982276205877e-05
      -1.2318122091693302e-03 6.0718514274289942e-04
      1.0577498401169922e-03 -2.4845962472362986e-03
      2.0520563877551054e-03 1.3329231160693901e-04
      1.5090166508916630e-03 1.3532937037258799e-03
      -2.5066093603463417e-03 -1.3801220405846833e-03
      2.3637018248354985e-04 2.4786624211029827e-03
      7.6784800687863461e-04 -1.3012221638679673e-03
      2.4906547033459827e-03 -1.1043562743765641e-03
      -1.4318982156896010e-03 -1.1471969312865490e-03
      -7.5506563896843071e-05 1.4521507289266069e-03
      1.8574904917527992e-04 -1.0509141955589495e-03
      -9.3023880985647160e-04 -2.0139141162951579e-03
      -1.4626053733747875e-03 1.7804692234739154e-03
      -1.0704200659513896e-03 -9.8626957586166815e-04
      -1.7319874843055476e-03 7.8345758797214839e-04
      5.5136955996922411e-04 1.3119419476491814e-03
      9.5378771390859142e-04 -1.1917524974114041e-03
      1.9075631831270469e-03 2.1677159175003814e-03
      -1.7479292680582246e-03 2.3388175365901915e-03
      -1.4414672328941158e-03 2.4868870447708391e-03
      -3.6368173046095998e-04 -2.1650288096681865e-03
      3.6176008094722134e-04 -1.9873334752539616e-03
      -2.5534401780306368e-03 -1.2356369717150067e-03
      1.5754160199984268e-03 2.0326737549197061e-04
      2.0704191576747257e-03 2.4541206103737821e-03
      -1.1129360633313013e-04 -2.5815101940882126e-04
      9.7799013941220810e-04 -2.1934174091139975e-03
      -1.5716432145992126e-04 2.4343539637844123e-03
      -5.6925812267788402e-04 -1.1063926488086289e-03
      -1.0589620961131262e-03 9.3560769119807239e-04
      2.0668680765194825e-03 1.5844745591952055e-03
      -5.6650202600989918e-04 -2.0296746044154049e-03
      -5.7459713064450134e-04 2.4229139811697362e-03
      -9.7908102784597805e-04 -1.4044535760038119e-03
      5.3885818634431710e-05 7.3332943086578219e-04
      1.2987625377323380e-03 9.4696911404761541e-04
      1.6466375797577881e-03 1.5725843182727206e-03
      1.2627209731022745e-03 3.6626579495774872e-04
      -4.5439681165526278e-04 -7.5170349193030416e-04
      -1.4771357314612963e-03 6.4382074620160520e-04
      2.0053240151096312e-03 1.6367624519122281e-03
      1.6429713666423501e-04 -1.6791105269938558e-03
      7.2402858495094580e-04 -8.9230933306759972e-05
      2.0985298570541612e-03 -9.3918047098428506e-04
      -3.2793165882070009e-04 1.5443748013422263e-03
      -7.7460306445195431e-04 -9.4644377074727887e-04
      2.4800196484244612e-03 -1.3037593140479181e-03
      -4.7615185133329630e-04 -1.5264765861654882e-03
      1.0522199353390413e-03 -2.5152948663925388e-03
      7.3848117129245790e-04 1.4683991932584002e-03
      2.2489098402212263e-03 -6.1216842800474814e-04
      7.3480674092816676e-04 -2.0921404743633855e-03
      1.7519260197886527e-03 2.3792654843926317e-03
      1.3762407255399945e-03 1.7461977553925800e-03
      -2.9916122920491741e-04 -3.0168951901389956e-05
      1.3930016051208713e-04 -2.4545563503154851e-03
      1.5346323445638969e-03 2.2455439994093561e-03
      -3.1973411084662004e-04 -2.3270237951949733e-03
      -9.3780133005073101e-05 1.5382390209741025e-03
      -1.1418663523841770e-03 -2.1339647616595503e-04
      1.2701827318841003e-03 2.4734774443696617e-03
      -1.8911428880156952e-03 2.4099490304432180e-03
      3.2248439323025722e-04 1.6721258845070407e-03
      7.2651704104675219e-05 5.5528402105477269e-04
      9.2241838286681154e-04 1.7547111551820601e-03
      -2.2266706500697299e-03 -1.6430416118774060e-03
      1.8033468382288182e-04 -2.0843847442644564e-04
      -9.1860680700187210e-04 -8.6621657482981054e-04
      -8.1895492432965339e-04 -2.2049529798704726e-03
      1.3352612924400760e-03 1.6325020633279231e-04
      -2.1770229739273995e-03 7.9891202548756045e-05
      -8.9293859437049197e-04 1.4952653041044913e-03
      8.3427153992725767e-04 1.8048090245484278e-03
      -1.1093135314631240e-03 2.2661017572407974e-03
      4.3245556051478025e-05 1.3295472811210040e-03
      -2.1025999124509821e-03 1.3876304967442748e-03
      -8.6437040254888707e-04 1.7546767166741284e-03
      -1.0196611202178757e-05 2.0805180527656121e-03
      -2.1240051155563427e-03 -3.3889322781723561e-04
      -1.4053008882247222e-03 -1.0435218573196759e-03
      -2.8128867928078720e-04 -1.2365144982238170e-03
      1.4608490312668320e-03 1.1721918355638080e-03
      -1.2737935530180628e-03 -3.2290518144118354e-04
      -1.6484498155832970e-03 -1.3144913423770244e-03
      1.5797121248415252e-03 -1.4503311266870185e-03
      5.2101370597676118e-04 -1.0419710774156651e-03
      1.1597451503213055e-03 -3.2361234055518283e-04
      1.4039471577146864e-04 2.4231037317322575e-03
      1.5250651063357316e-03 -2.1825908859228189e-03
      1.5280757139704379e-03 3.0895857881113007e-04
      4.4671431167336937e-04 -1.2095978185163077e-03
      1.2532654725769408e-03 -6.8651096035317598e-04
      -2.4272884849765130e-03 2.0177526800983065e-03
      1.1109269916011546e-03 -2.3316644181658277e-03
      -1.8437385686203536e-03 -1.0377288609433207e-03
      -7.9347525171873307e-04 -2.9633352243702536e-04
      2.4545276683399197e-05 -2.4814997153981486e-03
      -9.8593814293567047e-04 4.7108509374831542e-04
      -1.4109814433944890e-04 -7.4362863172909970e-05
      -1.6694075822461763e-03 -1.1760033743902774e-03
      1.5343944670439332e-03 8.9162463454529883e-04
      -8.5057887190847115e-04 -1.3233141334255719e-03
      1.1657989252063903e-04 1.6778581587739180e-03
      1.3177536662581869e-03 -1.8789048251350025e-03
      1.9252241707339976e-03 -1.1632104245189155e-03
      -7.0607329059923076e-04 2.3459798916964907e-03
      3.4663165399175178e-04 2.1176119873907240e-03
      -1.0372845026940479e-03 -8.2038984669447574e-04
      -1.1248331859996319e-03 -1.4345945581050522e-03
      -8.2234402191242199e-04 9.3508217411096138e-04
      -1.4387910677909120e-03 -1.2009279951206134e-03
      -1.8911334307008200e-03 2.0295048130297708e-03
      9.1404616238633307e-04 1.3770455659699375e-03
      2.6179926835170675e-04 1.2516337206673930e-03
      -2.5572184268598773e-03 2.1316231274732147e-03
      -1.7691190938068861e-03 1.9249163083295308e-03
      -3.7769086036333431e-04 2.3876478479126348e-03
      -4.8083947152634650e-04 -1.0189572123142279e-03
      1.7052339082915119e-03 -4.5050015421954501e-04
      -6.6459658968212262e-04 -1.8413322417457757e-03
      1.2613944070667183e-03 1.2632941157503916e-03
      -1.4124936597683718e-03 -8.9613520698742562e-04
      6.0413164084492882e-04 -1.9650355648477170e-04
      1.0160829896719160e-03 -2.4070053431890530e-03
      -2.2609067757711314e-03 -2.0269498730159032e-03
      1.8859647255618035e-03 1.1267463584633795e-03
      -1.2858599667850638e-03 1.6713688677533758e-03
      3.4171742673265031e-04 -2.4029998431904323e-03
      -9.6049734375318785e-04 -4.2551140955347707e-04
      2.5046342990979512e-03 1.6783770778336414e-03
      7.8994315564491708e-04 1.6290273196520586e-03
      -2.0087882764055964e-03 -1.6401430563460352e-03
      1.2355150646093638e-03 4.1181915109193433e-04
      -2.9269735946615917e-04 1.1485697639086623e-03
      -2.0122025892170196e-03 -2.0728968631044220e-03
      -2.0750501169170626e-03 1.0093765158756996e-03
      -1.1585408728291031e-03 2.0012345201183990e-03
      2.0586124039562448e-03 2.9702260988817168e-05
      -4.5384694992691501e-04 2.0804423054707668e-03
      -2.2518118684319529e-03 -1.5908465223185165e-03
      9.1401783287513869e-04 -1.4087573613244853e-04
      2.5178635237086871e-03 -1.5199617303061285e-03
      -8.4216401526361400e-04 8.5963523004954981e-05
      2.3215966180070899e-03 1.9211069649259136e-03
      -1.7661973050589314e-03 1.5208499528707170e-04
      1.3820719134878265e-03 -8.0884932174858583e-04
      2.4041297531331512e-04 1.7342704435893697e-03
      2.3893009711151527e-03 2.3316486265283075e-03
      -2.5018547993937981e-03 -2.2786890425255855e-03
      4.0874283369646757e-04 2.1860625352684796e-03
      -3.3740553716142378e-04 -1.8511491597068499e-04
      -1.8169196651339680e-03 -1.0029896518547615e-03
      2.0630881294554713e-03 -1.9511739622069674e-04
      -1.5259798638421159e-03 9.8233502290701025e-04
      1.5758939848934878e-03 -1.0203867646267510e-04
      2.3487006353101075e-03 -9.7470051926250531e-05
      -1.1633830248458427e-03 7.1215118789796515e-04
      -2.4314014358509574e-05 -1.5641060324742056e-03
      2.1755676715476176e-03 -6.1916091526108665e-04
      1.5090325222826991e-03 -1.0333204742517255e-03
      -1.6503136715924442e-03 1.6689392836078175e-03
      -1.6068428522242240e-03 -2.4106649452935009e-03
      -1.2659648427497975e-03 2.0602601999719326e-03
      -1.9883357501018504e-03 2.0844527997869786e-04
      2.2036150030782064e-03 -8.8362695702547686e-04
      1.1331568693295968e-03 -1.2024805787642652e-03
      1.0833194799334566e-03 2.3382365655958935e-03
      5.1165398279661670e-04 2.3542631195958984e-04
      2.3471684311650824e-04 1.0413264733754625e-03
      -1.4899343009217678e-03 1.3227397469034699e-03
      6.0509600043753516e-04 9.6656919517429468e-06
      1.5921621588830086e-03 2.5547347639614116e-04
      -1.5550021444752222e-04 1.2054542845117944e-03
      -9.5831635969185363e-04 1.1488956588517230e-03
      2.4901501415812992e-03 1.9337027925947264e-04
      -6.2211053737503178e-04 -2.5236714721288082e-03
      -2.2322898162581911e-04 9.4709822541409186e-04
      9.7068561360191786e-04 -8.2865082951601274e-04
      -2.1667452359576053e-03 -1.5587387064370842e-03
      8.8465264090919658e-04 -1.0779697101927421e-03
      -7.2187597768393194e-04 -1.6054686257832599e-03
      2.0209090383750006e-03 1.8853689518509039e-04
      -1.0231516670711992e-03 1.7099728820990732e-04
      -2.0002840726444180e-03 6.4000171657261934e-04
      1.6399830076330049e-04 -5.4402086059057184e-05
      1.8729036417300723e-03 -2.6027525223577810e-03
      3.7576275984017785e-05 -1.9272865374942308e-03
      1.0271071783960557e-03 -2.0620039735158458e-03
      1.4352827284977528e-03 7.9867339495599159e-04
      1.3828610138805447e-03 9.5160144448181035e-04
      -1.3741298137122679e-03 2.1974773615297274e-03
      3.5607885917681960e-04 -6.6593160827454958e-04
      8.2225607470576636e-04 1.9976005049075112e-03
      -1.0983412980940183e-03 7.9542047286282921e-04
      -1.1062825333097923e-04 2.6005701845321647e-03
      -1.7306168437354429e-04 6.0887151197949168e-05
      1.2609094912331331e-03 -9.5675207197837796e-04
      5.9823768060447192e-04 -1.4753484929815742e-03
      -4.6425503541130074e-04 1.8302529289644502e-03
      1.8274132199123472e-03 1.8046187501007682e-03
      2.4020787193623442e-03 -1.3441200495526757e-04
      -1.3062343995204468e-03 -1.3666440456350775e-03
      -2.1124699090876095e-03 5.0692909181929125e-04
      -1.8594317850481202e-03 5.5673231858712022e-04
      -9.8706064361699791e-04 -2.2867416466000445e-03
      1.1258666284105353e-03 -1.4333094731066962e-03
      7.5183679114325440e-04 1.2901022892967595e-03
      5.5663094846503493e-04 7.4131505119219327e-04
      5.0784873229102652e-04 -1.4331571709396229e-03
      -1.5437401534611830e-03 2.2109606494683902e-03
      1.0666236360184025e-03 -1.4834960940666559e-03
      1.4363143055977426e-03 1.3923696595030850e-03
      4.6877913736210726e-04 4.2987526865400971e-04
      -5.3886662790430899e-04 1.6508688094830839e-03
      4.2290509296556537e-04 8.4493920053704504e-04
      -7.7011026929990319e-04 8.4793023112072542e-04
      -2.1772360858676012e-03 6.1051537726491652e-04
      -1.4661096866212086e-03 -1.7740472444217150e-03
      -2.2053593383104132e-03 4.7894187843006694e-06
      1.6287842876917858e-03 1.6767201311558789e-03
      -6.5083398163813002e-04 9.0189930509300160e-04
      3.1349633314703152e-04 9.3766422124337892e-04
      1.9752715812774760e-03 -2.8919609842576187e-04
      1.1444969838403085e-03 5.8926951014309922e-04
      7.3321607195635219e-04 -7.7716584845973781e-04
      -1.8495689427658146e-03 1.9628003863483862e-03
      -2.2787819399448408e-03 1.8283579425997869e-03
      -2.2907861150378442e-03 3.0530138880137912e-04
      1.8503379021893561e-03 -2.4562186549541413e-03
      -1.1838822604070571e-03 9.5077091792158453e-04
      9.8654176891203849e-04 1.0259398386727840e-04
      -1.8153435727086213e-03 2.4478749055700708e-03
      -1.3823167831109305e-03 -1.2153559146723012e-03
      7.2441251423405255e-05 1.3216966512445720e-03
      1.3055688292031963e-03 -2.2178552577706238e-03
      3.0672795884285610e-04 2.6158655507953726e-03
      -2.2682377218739133e-03 -1.4726316589922723e-03
      -3.8280797581297457e-04 -2.2449449417732141e-03
      1.4864426662689928e-03 1.3439731825773185e-03
      -1.1582459754766732e-03 3.8393387917287148e-04
      -1.6899318716928581e-03 1.3417908661796322e-03
      -9.7930662303042379e-04 -1.7160620763584280e-03
      -1.2417318090292549e-03 1.9062419674057071e-03
      4.8737900349813909e-04 -1.1052575837535155e-03
      2.3536135064068870e-03 -2.3809768735502160e-03
      -1.8443471711096379e-04 2.1279240929225865e-03
      2.1188934929064732e-03 -2.2642116509965157e-03
      -2.8146162232525122e-04 1.7212421260585750e-03
      4.5797498378719466e-04 -1.7205900016446676e-03
      -1.4545711535586907e-03 -6.1838306771464120e-04
      -7.8255340833144360e-04 7.8520809598847771e-04
      -1.8797165881235622e-03 1.8388583069281566e-03
      -9.2906581485520173e-04 -2.1958062918340294e-03
      -1.3280795852512668e-04 1.8151871832345291e-03
      -1.5267650449837362e-03 -2.4102802195158082e-03
      1.2926231269181484e-03 1.7491415851562696e-03
      1.5125254149574200e-03 -1.1812659297507761e-03
      -2.3021697277304885e-03 -1.2059933637338730e-04
      7.6875589599538746e-04 -3.7697907626936354e-04
      -7.3167802574093525e-04 -1.1646166407393720e-03
      -2.2398069979535857e-03 -1.0884989760433362e-04
      -1.7851812567111682e-03 1.3167277700927316e-04
      1.7826811152396786e-03 1.5485556607405765e-03
      1.9613091057322212e-03 2.0575610765562807e-03
      6.2398217017577487e-04 -2.5784920272894671e-03
      -1.4561855906251608e-03 2.8785345150918689e-04
      -1.9653804388095474e-03 1.4239450773204548e-03
      -2.2259288895171868e-03 -4.1476607599582894e-04
      1.7857352984811735e-03 -2.3822077352201928e-03
      -1.3739077347898034e-03 -2.1833072766807961e-03
      2.5360698871394497e-03 -2.6214417555936524e-04
      1.7594466465525838e-04 1.4184428793935281e-03
      2.5033700418833054e-03 5.9329730809928503e-04
      -2.4232909580813289e-03 -9.8526370778945786e-06
      -2.1130757823219371e-03 -4.3859206284531556e-04
      -1.5915189515687343e-03 -2.1656547386723467e-03
      -4.0622222601552424e-05 1.0904265135440220e-03
      2.7876444450934690e-04 2.3949124405510339e-03
      2.9406380654973358e-04 -6.0845565368443551e-04
      2.3618922761447897e-03 1.4279646005436757e-03
      -8.2118076216016183e-04 2.2251270640099652e-04
      -2.4457736441528977e-04 -1.3015018993245253e-03
      -2.3842745284145014e-03 -8.5660732088227256e-05
      -1.4368777506213487e-03 -4.2880709073151840e-04
      -9.3399347528132551e-04 -9.5815993299637817e-04
      -2.7702287203834527e-04 -1.3919522037444975e-03
      5.5981973741046844e-04 1.2592437520365339e-03
      3.9861550429308885e-04 1.4830090444329723e-03
      1.0275557454611762e-03 -2.0087718358453841e-03
      -2.4572510218307210e-03 -2.1701284509745988e-04
      -5.6554801757875781e-04 3.0908211060486996e-04
      2.2150317755591582e-03 -2.0118046087417244e-03
      1.6549863984914438e-04 -2.3675163615882950e-03
      1.1888472324001506e-04 -2.0341658220247002e-03
      1.6010836094964136e-04 -1.6811283410240972e-03
      -1.1071188084136271e-03 -1.8530738513712994e-03
      -2.2470678961867521e-03 -1.1432373288089849e-03
      2.2966250661984682e-03 1.3686642263637553e-03
      1.8070739202528211e-04 -1.9172996233089159e-03
      -9.0103876252913462e-04 1.3754064848330513e-03
      -3.0120130217046025e-05 -2.2845069790664420e-03
      1.0552773176240109e-05 2.4962663274669082e-03
      4.2937795505649710e-04 -2.4050878548078514e-03
      -1.1975223429181957e-03 1.8940133511852141e-03
      2.3489037994633751e-03 -2.6549862649916225e-04
      1.2382135856688799e-03 -6.0674249351113654e-04
      6.7845748038211195e-04 1.8147876717580436e-04
      -1.3723543711872805e-04 7.1181159099982332e-04
      -2.5018075762018514e-03 -2.2819829298439862e-03
      -1.9499373599970932e-03 -6.7936107708332580e-04
      -1.8006463499556338e-03 6.4336688518092395e-05
      -5.3179262666446902e-04 -1.6266426424359427e-03
      6.1729614329622323e-04 1.1581170067967148e-04
      2.5165765818013154e-03 -6.3373754639896134e-04
      3.2612162699349615e-04 -3.9012586322864754e-04
      -1.3437678183324893e-04 2.1878492304061199e-03
      -1.9371646327445665e-03 3.6277857855588350e-04
      -4.9652650882623436e-04 -1.1853431627627970e-04
      -2.4682784084280348e-03 -1.2979249181039169e-03
      -1.3376216297522026e-03 1.8498776879161149e-04
      2.4354028840645105e-03 2.1067186359397150e-03
      1.3054257406991225e-03 1.3231202878931006e-04
      -3.5357687443542249e-04 4.8208500766831552e-04
      -5.0787452737550802e-04 -2.2377648498127542e-03
      7.8083042104011167e-04 -1.9976944284265932e-03
      1.9798782457698715e-03 -4.1815145963644296e-04
      1.0521405290128865e-03 -7.2106966735756056e-04
      -2.7237983307437007e-04 1.9284291844999255e-03
      -1.6665542322933890e-04 -1.6789117498151082e-03
      2.0113297671314765e-03 7.6614884610414608e-04
      -7.6667213445274064e-04 2.1592752835153587e-04
      2.0487599718050785e-03 2.1642768112344916e-03
      1.2583495522118112e-03 -9.5289112450592790e-04
      2.4396299104872269e-03 -1.8037646977883128e-03
      -2.1390324922971955e-03 -1.2044727959224576e-03
      1.2710011585058039e-03 8.4237466328999412e-04
      1.7445973596247601e-04 -2.2914435232510126e-03
      1.3792733268538481e-03 -1.3445701536480468e-03
      -9.9165080616318282e-04 -1.0252649791211695e-03
      -2.3252024881278404e-03 3.4541563010368967e-04
      -1.4547700193020041e-04 1.6475745464659454e-03
      7.2566212156857700e-04 2.3421187928533609e-03
      1.0555303836168764e-03 1.4096095365583351e-03
      2.1148741148191170e-03 -1.5526974840900788e-03
      1.3327742832152717e-03 -2.5030567369639959e-03
      2.3537416697053982e-03 -2.9055829821905482e-04
      -5.7593127736993584e-04 -1.3369638703159107e-03
      1.9089568334188453e-03 -1.7503318598882643e-03
      -2.2660953678274639e-03 8.8802945879015477e-04
      -1.2204230259344920e-03 -1.1311786800710078e-03
      2.1479346121850130e-03 2.0900107153731455e-03
      -7.7288921890673011e-04 -1.7858955403934613e-03
      1.4322399452097436e-04 2.4582038701369624e-03
      -3.5205619793809658e-04 9.4433078743772218e-04
      -1.7696689562298857e-03 4.8688490438523232e-04
      2.4671819115436111e-03 -1.9783877417453338e-03
      -3.9032341780351854e-04 2.3473872991196972e-03
      -7.3188180438574755e-04 -1.5428372012356033e-03
      -2.1651421108988224e-03 2.1461875885154220e-04
      1.7383685717860088e-03 8.3475800318834629e-04
      1.6955970035531466e-03 -1.9474320287039652e-03
      -2.3745644618927385e-03 -2.4045434905608045e-03
      2.0242958552051738e-03 -1.6535649944979173e-03
      2.2515769280976195e-03 -2.2821587819305614e-03
      1.4674907443746864e-03 9.6153850231216708e-04
      1.6441875043471353e-03 -2.2128687898473226e-04
      5.8294967992311437e-04 4.0146242211643230e-04
      1.2733482564120928e-03 1.5873314018848902e-03
      1.3779173977255417e-03 -3.4799572963562701e-04
      2.5060278671219750e-03 1.4638641198351458e-03
      8.1803235508839923e-04 9.3086133484131424e-04
      -1.8918569964522696e-03 -1.8756813898104558e-03
      2.4719649401662821e-04 6.9733476809816838e-04
      -4.1047907213923745e-04 -7.7661275895082849e-04
      7.0745268196984671e-04 6.0869023417614479e-04
      -2.2873373615675745e-03 2.1581972292815835e-03
      2.4508645993001669e-03 -1.6561113050128607e-03
      1.0035985829378333e-03 8.1703720706761292e-05
      -1.9176041416294367e-03 2.4585316438366363e-03
      4.9535751934656785e-05 -1.4539875971365838e-03
      1.9253610400030933e-03 6.9058112253687790e-04
      -1.9125537258740061e-03 9.9211302618200511e-04
      5.0801726227337309e-04 7.2705446151314626e-04
      8.7508685808397420e-05 -1.9480771778339525e-03
      2.4055644931465837e-03 -7.8185768977447620e-04
      4.7135845319667551e-04 3.8785625459655598e-04
      1.4578728426691133e-03 5.9453927828856260e-04
      -9.7930166634538655e-04 2.0496264771339230e-04
      -9.6093613638088588e-04 2.3627119997782059e-03
      -7.2994920446939175e-04 1.9234166037782354e-03
      2.2770156919210641e-03 -1.0632731374414178e-03
      2.5302247970505893e-03 -1.5953425189791706e-03
      -2.1932430804140917e-03 -8.0765423295806960e-04
      1.7785751117982392e-03 -1.1904773870737675e-03
      1.9957047282664255e-03 -1.8162536520730096e-03
      -8.1149888903133110e-04 2.2030727848848680e-03
      8.8633557628334703e-04 -4.8607072931974740e-04
      -1.4413878332309215e-03 5.8789068113626662e-04
      2.0081596008054274e-03 9.2457653983045853e-04
      -2.4078858260276328e-03 -1.0449830432969424e-03
      -4.3843080022454561e-04 2.1875815899575192e-04
      -1.5992856290120022e-03 -2.1150446171468440e-03
      -7.2694918322632133e-04 -7.1508265441927107e-04
      5.9708505988568866e-04 1.2415559798214684e-03
      -1.5418414328958031e-03 -6.5733778564617195e-04
      1.3167662126696282e-03 3.9913517717440444e-04
      -1.7838557890819336e-04 4.1230709016833932e-04
      -1.5910064102801712e-03 -5.3332485787337873e-04
      1.2214456884506832e-03 2.8805306782248193e-04
      -2.3970218737346138e-03 2.3389194980346492e-03
      -1.3004611533888174e-03 -5.0615525434609095e-04
      -2.1472955874481726e-03 4.4810974402181587e-04
      1.3030582680488023e-03 1.9583630290614541e-03
      -1.1619411946025831e-03 6.4554164547118119e-04
      1.1254067656120586e-03 -1.8163640154742985e-03
      -5.0456291278852918e-04 2.0526397677752537e-03
      1.6049210066932885e-03 1.3098506832661290e-03
      -2.0415496405611312e-03 -1.7803969982401475e-03
      7.4100406392412551e-04 -8.2437664626402215e-04
      8.9809220792818494e-04 1.3421245448896552e-03
      2.0637445173381057e-03 8.6229818494644353e-04
      2.4009120297708076e-03 -1.3588261717373826e-03
      4.0065156872828422e-04 2.4787694276847813e-03
      -1.3235607816222900e-04 -2.2231560780724474e-03
      -4.8421095320006532e-04 -9.9267481399862597e-05
      1.3552415830083515e-03 2.2426335121382254e-03
      1.2912352596488772e-03 -1.0599467800361381e-03
      -2.3027547573928843e-03 1.2979308167313786e-03
      -9.0086686450632588e-05 9.0316388948050023e-04
      1.7146425639824779e-03 2.4234828999597936e-03
      1.1276431603710751e-03 2.3542599003364625e-03
      -1.8224354407016428e-03 6.3793818966005340e-04
      -4.5483835231059790e-04 -1.7904393972247516e-03
      -5.1237598861593296e-04 1.4103550723808958e-03
      -1.2520213837183367e-03 -1.7751366994576787e-03
      -2.1777072629169604e-03 5.3044867391029594e-04
      -8.0569770055013171e-05 -2.4864618801235527e-03
      -2.4096415390908671e-03 2.0347155842395936e-03
      2.2316468074166339e-03 5.7966250703999863e-04
      8.0860177014445249e-04 1.5622005288282092e-03
      -2.4989685705944947e-03 -4.7959911267635966e-04
      -1.7706094554525555e-03 1.2558547354955764e-03
      -2.2826929664652835e-03 -2.8749698606354401e-04
      4.9419158631322517e-05 -3.3772463524065041e-04
      -2.4776038122371162e-03 2.4115357709319925e-03
      -9.6974469172589697e-04 1.0092094116836007e-03
      1.2355790972359956e-04 1.5414160175741675e-03
      -5.9486719072941805e-04 -1.0798487183358065e-04
      8.3012929923077892e-04 -2.7395614354638669e-05
      -1.0710369344994143e-03 -1.0193602365912318e-03
      8.8179338865295028e-04 1.8457696874891914e-03
      7.5673000966816183e-04 2.5421202121614340e-03
      -1.6212227546415806e-03 -1.7134216690591099e-03
      7.7487951391314752e-04 -1.7887170035059182e-03
      -7.1203337218684508e-04 1.0133519530654113e-04
      1.5959935015399994e-03 -1.6750256619907124e-03
      3.3289172384876032e-04 -7.4670810244691164e-04
      5.7042547666475362e-04 9.1913464933256021e-04
      1.0872023679283605e-03 2.2400774416349309e-03
      -2.1914352878136343e-03 5.5942917577900221e-04
      1.7078833080952560e-03 -9.2755444185413372e-04
      1.5664382345328355e-03 -8.5468095061152691e-04
      -1.7718096747289068e-04 -1.9103448134238695e-03
      -1.4799590041414486e-03 3.4537075391851389e-04
      1.1217946838101166e-03 1.2635789218211004e-03
      -3.7118098624049745e-04 -1.4607093728413768e-03
      1.4758739711562665e-03 -2.8300756117773384e-04
      -8.2780983069710495e-04 -2.3020143497481721e-03
      -3.0872666242507139e-05 -2.4026070994910786e-04
      -1.8270714466226208e-03 -1.2598472283047804e-03
      -5.9432311933060780e-04 -2.1617026237535203e-04
      5.1004646403261333e-04 1.2971085896814533e-03
      2.2483823218272911e-03 -3.8550050064924888e-04
      6.7809992690513461e-04 -2.2988698332137123e-03
      1.9452484249988032e-03 -3.8949923083069601e-06
      -2.1622974276891025e-03 -1.3152908377553464e-03
      -2.2196054261431532e-03 2.2362247884933641e-03
      -4.4455632555629094e-04 -1.6901745765478249e-04
      -1.8767305091337151e-03 -3.6114077437378127e-04
      -7.1707220335538681e-04 -8.7257375731498543e-04
      6.3658427540250987e-04 -1.9144402936929516e-03
      -1.6094908646691233e-03 -9.6525295792300458e-04
      2.2775023749482238e-03 -1.5378489689386874e-03
      1.0983302328566103e-03 7.7648579607019169e-04
      -2.0502875263660189e-03 -1.2727675234889843e-03
      -1.9562648023334138e-03 -9.3962858286022595e-05
      2.5482289794991942e-04 -1.5899541147416365e-05
      -1.4300228462995338e-04 1.8522368411822783e-03
      5.4393173534555495e-04 2.0413755657237337e-03
      2.2672750773670316e-03 1.7076674165813059e-03
      1.3797096721092735e-04 2.2773676786603295e-03
      1.3504548063091552e-04 1.1154294642286924e-04
      -2.2366926516438528e-03 -7.9896972596641541e-04
      1.3898850666516269e-03 -4.8806218788627364e-06
      -1.3109423473906606e-03 2.4984983568893102e-03
      1.1335752341773281e-03 3.7142529747856537e-04
      -6.3185531482536984e-04 4.8040203765063229e-04
      -1.3545405006685184e-03 1.0680467037353812e-03
      -1.9398275264634025e-03 1.7522541430988734e-03
      2.2351257297568167e-03 -1.5805651339575405e-03
      4.1046634065002323e-04 -5.2698399241756411e-04
      2.7611726822103218e-04 -7.8090598465844758e-04
      -1.4521226959020768e-03 -2.5308728584799572e-03
      4.8252923865641954e-04 8.2401148246279729e-04
      1.4719762194532100e-03 -5.6876369995639177e-05
      6.7362160166131908e-04 -4.7902999008989436e-04
      1.8211810503004329e-03 4.0623781732625517e-04
      6.2899616296727113e-04 8.9283740584778079e-05
      -2.1156052061026167e-03 -6.2559679267314432e-04
      -2.4246882534054966e-03 -1.5983198833681767e-03
      2.3103620254295854e-03 -8.8337914397778618e-04
      -4.4379399652727796e-04 -2.5904275908852806e-03
